tree
version=v4
num_class=1
num_tree_per_iteration=1
label_index=0
max_feature_idx=89
objective=regression
feature_names=F0semitoneFrom27.5Hz_sma3nz_amean F0semitoneFrom27.5Hz_sma3nz_stddevNorm F0semitoneFrom27.5Hz_sma3nz_percentile20.0 F0semitoneFrom27.5Hz_sma3nz_percentile50.0 F0semitoneFrom27.5Hz_sma3nz_percentile80.0 F0semitoneFrom27.5Hz_sma3nz_pctlrange0-2 F0semitoneFrom27.5Hz_sma3nz_meanRisingSlope F0semitoneFrom27.5Hz_sma3nz_stddevRisingSlope F0semitoneFrom27.5Hz_sma3nz_meanFallingSlope F0semitoneFrom27.5Hz_sma3nz_stddevFallingSlope loudness_sma3_amean loudness_sma3_stddevNorm loudness_sma3_percentile20.0 loudness_sma3_percentile50.0 loudness_sma3_percentile80.0 loudness_sma3_pctlrange0-2 loudness_sma3_meanRisingSlope loudness_sma3_stddevRisingSlope loudness_sma3_meanFallingSlope loudness_sma3_stddevFallingSlope spectralFlux_sma3_amean spectralFlux_sma3_stddevNorm mfcc1_sma3_amean mfcc1_sma3_stddevNorm mfcc2_sma3_amean mfcc2_sma3_stddevNorm mfcc3_sma3_amean mfcc3_sma3_stddevNorm mfcc4_sma3_amean mfcc4_sma3_stddevNorm jitterLocal_sma3nz_amean jitterLocal_sma3nz_stddevNorm shimmerLocaldB_sma3nz_amean shimmerLocaldB_sma3nz_stddevNorm HNRdBACF_sma3nz_amean HNRdBACF_sma3nz_stddevNorm logRelF0-H1-H2_sma3nz_amean logRelF0-H1-H2_sma3nz_stddevNorm logRelF0-H1-A3_sma3nz_amean logRelF0-H1-A3_sma3nz_stddevNorm F1frequency_sma3nz_amean F1frequency_sma3nz_stddevNorm F1bandwidth_sma3nz_amean F1bandwidth_sma3nz_stddevNorm F1amplitudeLogRelF0_sma3nz_amean F1amplitudeLogRelF0_sma3nz_stddevNorm F2frequency_sma3nz_amean F2frequency_sma3nz_stddevNorm F2bandwidth_sma3nz_amean F2bandwidth_sma3nz_stddevNorm F2amplitudeLogRelF0_sma3nz_amean F2amplitudeLogRelF0_sma3nz_stddevNorm F3frequency_sma3nz_amean F3frequency_sma3nz_stddevNorm F3bandwidth_sma3nz_amean F3bandwidth_sma3nz_stddevNorm F3amplitudeLogRelF0_sma3nz_amean F3amplitudeLogRelF0_sma3nz_stddevNorm alphaRatioV_sma3nz_amean alphaRatioV_sma3nz_stddevNorm hammarbergIndexV_sma3nz_amean hammarbergIndexV_sma3nz_stddevNorm slopeV0-500_sma3nz_amean slopeV0-500_sma3nz_stddevNorm slopeV500-1500_sma3nz_amean slopeV500-1500_sma3nz_stddevNorm spectralFluxV_sma3nz_amean spectralFluxV_sma3nz_stddevNorm mfcc1V_sma3nz_amean mfcc1V_sma3nz_stddevNorm mfcc2V_sma3nz_amean mfcc2V_sma3nz_stddevNorm mfcc3V_sma3nz_amean mfcc3V_sma3nz_stddevNorm mfcc4V_sma3nz_amean mfcc4V_sma3nz_stddevNorm alphaRatioUV_sma3nz_amean hammarbergIndexUV_sma3nz_amean slopeUV0-500_sma3nz_amean slopeUV500-1500_sma3nz_amean spectralFluxUV_sma3nz_amean loudnessPeaksPerSec VoicedSegmentsPerSec MeanVoicedSegmentLengthSec StddevVoicedSegmentLengthSec MeanUnvoicedSegmentLength StddevUnvoicedSegmentLength equivalentSoundLevel_dBp gender_Female gender_Male
feature_infos=[18.470849999999999:41.658969999999997] [0.14785490000000001:0.41510358000000003] [13.073807:38.603560000000002] [17.103532999999999:41.486989999999999] [22.096340000000001:47.566066999999997] [5.0956535000000001:24.631702000000001] [196.80121:555.69617000000005] [246.6429:809.25990000000002] [65.024704:370.96323000000001] [100.64632:704.61584000000005] [0.044029545000000003:1.8529133] [1.0411634000000001:2.4298038000000002] [0.008859268:0.21948205000000001] [0.015273363:1.0089788] [0.05391804:3.3133335000000002] [0.042536438000000003:3.2241564] [1.2800742000000001:79.265690000000006] [1.0174985999999999:59.556015000000002] [1.1143409:66.997510000000005] [0.97689219999999999:53.540905000000002] [0.0095376200000000001:2.0669048000000001] [1.0452950999999999:3.5321345000000002] [7.0800257000000002:26.818565] [0.51737169999999999:1.6494181000000001] [-14.895944:17.857351000000001] [-54.175255:134.88371000000001] [3.8596113000000001:30.573405999999999] [0.43884765999999997:3.9853032000000002] [-21.653517000000001:12.52453] [-162.11091999999999:191.94896] [0.022285625:0.097881629999999997] [1.4885694:2.4857689999999999] [0.89740310000000001:2.5989232000000002] [0.68644749999999999:1.0978707999999999] [-3.1264143:9.3170110000000008] [-40.910939999999997:40.057740000000003] [-1.4730730999999999:9.7938810000000007] [-37.366894000000002:49.08437] [-0.39054129999999998:30.938616] [-40.041400000000003:24.862682] [467.65557999999999:926.22760000000005] [0.26153569999999998:0.56458425999999995] [807.42895999999996:1359.3389999999999] [0.16848552:0.40347690000000003] [-194.2431:-66.960430000000002] [-1.2711842:-0.17088328] [1459.1054999999999:2023.3087] [0.13821952000000001:0.25035685000000002] [624.69809999999995:1128.7885000000001] [0.29107946000000001:0.60250119999999996] [-193.82623000000001:-66.029780000000002] [-1.2020512000000001:-0.17403536999999999] [2469.0864000000001:3019.2622000000001] [0.082018696000000002:0.14954844] [543.21159999999998:996.42190000000005] [0.31354251999999999:0.74338685999999998] [-193.82434000000001:-68.115654000000006] [-1.1452526999999999:-0.17260294000000001] [-23.718513000000002:-0.10175747] [-87.439989999999995:-0.34949334999999998] [6.2331877000000002:34.599589999999999] [0.27783605:1.6190263] [-0.071589134999999998:0.071120544999999993] [-875.05724999999995:28.556576] [-0.027826179999999999:-0.0043927793999999996] [-3.2824764000000002:-0.57560210000000001] [0.035405535000000002:3.4726276] [0.65634130000000002:2.3849075000000002] [7.2157964999999997:34.109107999999999] [0.30611803999999998:1.6404468000000001] [-24.357498:18.612337] [-980.02260000000001:78.158450000000002] [-7.3833200000000003:30.779837000000001] [-58.610576999999999:11.420114999999999] [-42.969009999999997:4.4584484] [-7065.6255000000001:23.60501] [-24.49286:-6.9370832] [16.220215:35.521217] [-0.099387539999999996:-0.00021947897] [-0.011115715:0.0075702469999999996] [0.0080596420000000005:1.09341] [0.18114830000000001:2.7617517] [0.50509375000000001:3.2317488000000001] [0.059945576:0.27528414000000001] [0.052917222999999999:0.28733477000000002] [0.089006625000000006:1.6800752000000001] [0.097944126000000006:2.8065850000000001] [-61.808759999999999:-14.018597] [0:1] [0:1]
tree_sizes=786 813 730 644 738 736 733 731 735 815 738 738 658 657 743 739 730 736 733 728 650 733 733 648 659 740 741 732 821 738 740 657 656 743 743 742 748 653 750 748 735 830 750 744 750

Tree=0
num_leaves=8
num_cat=0
split_feature=69 72 25 77 5 86 61
split_gain=5.22307 1.73868 1.46944 0.913086 0.73216 0.729668 0.193939
threshold=0.57023496500000015 14.751503000000001 0.82240286500000015 24.060645000000005 10.697325500000002 0.80882905000000005 0.43386852500000006
decision_type=2 2 2 2 2 2 2
left_child=1 3 -2 -1 5 6 -3
right_child=2 4 -4 -5 -6 -7 -8
leaf_value=0.40152381403531351 0.45852381341691528 0.38352381383911488 0.420190480319517 0.43019048024501122 0.40653968715951561 0.39885714696134844 0.37019047987248216
leaf_weight=25 20 24 20 20 21 25 20
leaf_count=25 20 24 20 20 21 25 20
internal_value=0.407619 0.398215 0.439357 0.414265 0.39019 0.385215 0.377463
internal_weight=0 135 40 45 90 69 44
internal_count=175 135 40 45 90 69 44
is_linear=0
shrinkage=1


Tree=1
num_leaves=8
num_cat=0
split_feature=69 72 81 84 41 71 69
split_gain=4.23069 1.40833 1.32617 0.809313 0.623013 0.931578 0.485072
threshold=0.57023496500000015 14.751503000000001 1.5151788000000004 0.18254666500000002 0.45717396500000002 1.3643578500000004 0.44623081500000006
decision_type=2 2 2 2 2 2 2
left_child=1 3 -2 -1 5 -3 -6
right_child=2 4 -4 -5 6 -7 -8
leaf_value=-0.0077311697331341831 0.010355952829122543 0.0086771431937813764 0.046772619783878332 0.019096893784792526 -0.035181103646755217 -0.020029792504814958 -0.014159972188265427
leaf_weight=22 20 20 20 23 21 26 23
leaf_count=22 20 20 20 23 21 26 23
internal_value=0 -0.00846349 0.0285643 0.00598095 -0.0156857 -0.00754852 -0.0241928
internal_weight=0 135 40 45 90 46 44
internal_count=175 135 40 45 90 46 44
is_linear=0
shrinkage=0.1


Tree=2
num_leaves=7
num_cat=0
split_feature=69 72 81 77 30 41
split_gain=3.42686 1.14075 1.0742 0.701646 0.588897 0.577608
threshold=0.57023496500000015 14.751503000000001 1.5151788000000004 24.060645000000005 0.042809683500000008 0.45717396500000002
decision_type=2 2 2 2 2 2
left_child=1 3 -2 -1 -3 -6
right_child=2 4 -4 -5 5 -7
leaf_value=-0.0057857198715209959 0.0093203566968441016 -0.024024181199880937 0.042095356360077857 0.019343579187989235 0.0020901942047579533 -0.018651517514139414
leaf_weight=25 20 36 20 20 29 25
leaf_count=25 20 36 20 20 29 25
internal_value=0 -0.00761714 0.0257079 0.00538286 -0.0141171 -0.00751245
internal_weight=0 135 40 45 90 54
internal_count=175 135 40 45 90 54
is_linear=0
shrinkage=0.1


Tree=3
num_leaves=6
num_cat=0
split_feature=15 71 26 82 28
split_gain=2.82186 2.82581 0.89685 0.487526 0.597587
threshold=0.60780602000000006 1.3643578500000004 12.104350000000002 2.0289289000000004 4.739233500000001
decision_type=2 2 2 2 2
left_child=2 -2 -1 4 -4
right_child=1 -3 3 -5 -6
leaf_value=0.0057819844396026047 0.033523418448674375 -0.0081153181181954481 0.00012927440693601965 -0.027582820828842083 -0.020183760596749686
leaf_weight=27 39 28 28 23 30
leaf_count=27 39 28 28 23 30
internal_value=0 0.0161222 -0.0100017 -0.0152629 -0.0103775
internal_weight=0 67 108 81 58
internal_count=175 67 108 81 58
is_linear=0
shrinkage=0.1


Tree=4
num_leaves=7
num_cat=0
split_feature=3 13 71 64 49 65
split_gain=2.36603 1.47131 0.872455 0.887163 0.916062 0.571798
threshold=35.398987000000005 0.15549992000000004 -1.9072164999999999 -0.019621348999999996 0.41070165000000008 -0.89939251999999992
decision_type=2 2 2 2 2 2
left_child=2 -2 -1 4 -4 -5
right_child=1 -3 3 5 -6 -7
leaf_value=0.0095932997334748516 -0.0018019914813339711 0.033710292128047777 0.013243144167506177 -0.0090971917737208835 -0.015644709732649583 -0.02896709564064319
leaf_weight=25 20 28 23 28 21 30
leaf_count=25 20 28 23 28 21 30
internal_value=0 0.0189135 -0.00714841 -0.0112518 -0.000544241 -0.0193747
internal_weight=0 48 127 102 44 58
internal_count=175 48 127 102 44 58
is_linear=0
shrinkage=0.1


Tree=5
num_leaves=7
num_cat=0
split_feature=69 41 25 73 71 86
split_gain=2.07493 0.745748 0.699665 0.648935 1.18477 0.572347
threshold=0.57023496500000015 0.46847357500000003 0.82240286500000015 0.93709870000000006 2.3996272500000004 0.61999774000000007
decision_type=2 2 2 2 2 2
left_child=1 3 -2 5 -5 -1
right_child=2 -3 -4 4 -6 -7
leaf_value=-0.020578393763255168 0.033229728862643242 -0.018252391228452326 0.0067785440012812616 0.025601823600009083 -0.0080272773894566034 -0.00015331395347054828
leaf_weight=23 20 36 20 20 22 34
leaf_count=23 20 36 20 20 22 34
internal_value=0 -0.00592715 0.0200041 -0.00144525 0.00798658 -0.00839501
internal_weight=0 135 40 99 42 57
internal_count=175 135 40 99 42 57
is_linear=0
shrinkage=0.1


Tree=6
num_leaves=7
num_cat=0
split_feature=15 71 64 86 80 12
split_gain=1.81689 1.66661 1.09519 0.667992 1.19756 0.42279
threshold=0.60780602000000006 2.1423844000000005 -0.016765657499999996 1.0592972000000003 0.045010764000000002 0.043629750500000002
decision_type=2 2 2 2 2 2
left_child=3 2 -2 4 -1 -6
right_child=1 -3 -4 -5 5 -7
leaf_value=0.0098028587287343621 0.0054886027611792086 -0.011241014001425357 0.036362916783050252 -0.024032972353909696 -0.022946970323279789 -0.0047335917428135872
leaf_weight=36 20 20 27 21 26 25
leaf_count=36 20 20 27 21 26 25
internal_value=0 0.0129366 0.0232249 -0.00802547 -0.00416159 -0.0140188
internal_weight=0 67 47 108 87 51
internal_count=175 67 47 108 87 51
is_linear=0
shrinkage=0.1


Tree=7
num_leaves=7
num_cat=0
split_feature=69 50 21 39 65 74
split_gain=1.49533 1.83128 0.788062 0.699475 0.422514 0.366413
threshold=0.49338763000000002 -140.96086999999997 2.0107932000000006 0.68339092500000009 -0.81318549999999989 -9.7937869999999982
decision_type=2 2 2 2 2 2
left_child=3 -2 -3 -1 -5 -6
right_child=1 2 -4 4 5 -7
leaf_value=0.0047123224504532352 -0.01399676175344558 0.0081984047405421739 0.032837793268953211 -0.0042737189280645299 -0.029577679932117462 -0.010665017322060608
leaf_weight=31 21 25 27 30 20 21
leaf_count=31 21 25 27 30 20 21
internal_value=0 0.0109267 0.0209919 -0.00782008 -0.013292 -0.0198907
internal_weight=0 73 52 102 71 41
internal_count=175 73 52 102 71 41
is_linear=0
shrinkage=0.1


Tree=8
num_leaves=7
num_cat=0
split_feature=83 69 50 21 64 65
split_gain=1.30406 1.18126 1.22477 0.730159 0.558405 0.368841
threshold=0.21168067000000004 0.49338763000000002 -140.96086999999997 2.0107932000000006 -0.019621348999999996 -0.89939251999999992
decision_type=2 2 2 2 2 2
left_child=1 4 -3 -4 -1 -6
right_child=-2 2 3 -5 5 -7
leaf_value=-0.00069905521614210949 0.023376546693699703 -0.012597085375870979 0.0028915425692684952 0.029017008209358094 -0.0060235771071165808 -0.02304720720542329
leaf_weight=35 21 21 20 23 20 35
leaf_count=35 21 21 20 23 20 35
internal_value=0 -0.00318771 0.00719818 0.0168656 -0.0105732 -0.0168568
internal_weight=0 154 64 43 90 55
internal_count=175 154 64 43 90 55
is_linear=0
shrinkage=0.1


Tree=9
num_leaves=8
num_cat=0
split_feature=15 71 64 4 49 31 64
split_gain=1.09286 1.18571 0.667317 0.49325 0.973876 0.618629 0.232455
threshold=0.60780602000000006 2.1423844000000005 -0.016765657499999996 29.168509500000003 0.41070165000000008 2.0841678500000005 -0.019381139999999995
decision_type=2 2 2 2 2 2 2
left_child=3 2 -2 6 -5 -6 -1
right_child=1 -3 -4 4 5 -7 -8
leaf_value=-0.006893313731998205 0.00486641057766974 -0.010360091589391232 0.028966472297906876 0.016948623620417148 0.0023357763420790434 -0.021119793860072442 -0.021789242107082496
leaf_weight=20 20 20 27 21 23 22 22
leaf_count=20 20 20 27 21 23 22 22
internal_value=0 0.0100332 0.0187111 -0.00622427 -0.000833205 -0.00913139 -0.0146959
internal_weight=0 67 47 108 66 45 42
internal_count=175 67 47 108 66 45 42
is_linear=0
shrinkage=0.1


Tree=10
num_leaves=7
num_cat=0
split_feature=83 18 69 85 64 58
split_gain=0.952749 0.806649 0.666624 0.628821 0.446687 0.190936
threshold=0.21168067000000004 27.422831000000006 0.49338763000000002 0.36179182500000007 -0.019621348999999996 -11.844911999999999
decision_type=2 2 2 2 2 2
left_child=1 2 4 -4 -1 -6
right_child=-2 -3 3 -5 5 -7
leaf_value=-0.0020654035880315036 0.019981169749406124 0.01548899075105077 0.012677573722418553 -0.010213857907801868 -0.022100905096158387 -0.0094868981046602133
leaf_weight=33 21 21 30 20 30 20
leaf_count=33 21 21 30 20 30 20
internal_value=0 -0.00272471 -0.00560055 0.003521 -0.0110955 -0.0170553
internal_weight=0 154 133 50 83 50
internal_count=175 154 133 50 83 50
is_linear=0
shrinkage=0.1


Tree=11
num_leaves=7
num_cat=0
split_feature=3 66 49 69 42 41
split_gain=0.800032 0.607949 0.491622 0.811349 0.507049 0.278755
threshold=35.398987000000005 0.40848013000000005 0.47862679000000002 0.43349596500000004 1153.8412500000002 0.45717396500000002
decision_type=2 2 2 2 2 2
left_child=2 -2 3 5 -5 -1
right_child=1 -3 -4 4 -6 -7
leaf_value=-0.003548097985631396 0.0006457332736597612 0.023232616501098331 -0.018135133044173322 -0.00064433709718286997 0.019615683465131692 -0.017903209749298789
leaf_weight=31 26 22 21 30 21 24
leaf_count=31 26 22 21 30 21 24
internal_value=0 0.0109981 -0.00415675 -0.00138744 0.00769802 -0.00981215
internal_weight=0 48 127 106 51 55
internal_count=175 48 127 106 51 55
is_linear=0
shrinkage=0.1


Tree=12
num_leaves=6
num_cat=0
split_feature=83 30 30 43 55
split_gain=0.705278 0.650024 0.766726 0.793303 0.341785
threshold=0.21168067000000004 0.035818828000000004 0.047768502500000011 0.21969521000000003 0.49912406500000006
decision_type=2 2 2 2 2
left_child=1 -1 3 -3 -4
right_child=-2 2 4 -5 -6
leaf_value=-0.015285529550765793 0.01719142630075415 -0.0041290945983652417 -0.001885270597287328 0.017960694215789035 -0.018110772821237336
leaf_weight=31 21 29 37 37 20
leaf_count=31 21 29 37 37 20
internal_value=0 -0.00234429 0.000917329 0.00825457 -0.00757843
internal_weight=0 154 123 66 57
internal_count=175 154 123 66 57
is_linear=0
shrinkage=0.1


Tree=13
num_leaves=6
num_cat=0
split_feature=86 69 80 66 69
split_gain=0.644801 0.685152 0.519611 0.462103 0.494811
threshold=1.0592972000000003 0.57023496500000015 0.045010764000000002 0.38089274000000006 0.43349596500000004
decision_type=2 2 2 2 2
left_child=1 2 -1 -4 -5
right_child=-2 -3 3 4 -6
leaf_value=0.0093755076611132335 -0.016437829126204766 0.014772477351567326 -0.014684501036324286 -0.011209117492068221 0.0082727359826094467
leaf_weight=33 21 34 33 22 32
leaf_count=33 21 34 33 22 32
internal_value=0 0.00224152 -0.00130892 -0.00536163 0.000335685
internal_weight=0 154 120 87 54
internal_count=175 154 120 87 54
is_linear=0
shrinkage=0.1


Tree=14
num_leaves=7
num_cat=0
split_feature=83 47 79 9 70 77
split_gain=0.544672 0.537066 0.382654 0.438908 0.234775 0.196004
threshold=0.21168067000000004 0.21588464500000001 -0.0032770323999999997 329.66257000000007 6.8833032000000012 23.080277000000002
decision_type=2 2 2 2 2 2
left_child=1 2 3 -1 5 -4
right_child=-2 -3 4 -5 -6 -7
leaf_value=-0.0079670814611017705 0.015107736845190326 0.0090342797366354394 -0.0070568373201993009 0.012732139194295521 -0.00076533266464653233 -0.018896678769616065
leaf_weight=20 21 34 29 21 23 27
leaf_count=20 21 34 29 21 23 27
internal_value=0 -0.00206015 -0.00520357 0.00263496 -0.00927166 -0.0127653
internal_weight=0 154 120 41 79 56
internal_count=175 154 120 41 79 56
is_linear=0
shrinkage=0.1


Tree=15
num_leaves=7
num_cat=0
split_feature=69 18 39 40 67 55
split_gain=0.511806 0.642898 0.516339 0.330976 0.531663 0.433861
threshold=0.71795651500000013 27.422831000000006 0.67357443000000006 536.72205000000019 1.5052290000000002 0.46030830000000006
decision_type=2 2 2 2 2 2
left_child=1 2 -1 -4 5 -5
right_child=-2 -3 3 4 -6 -7
leaf_value=0.0072513886644238875 0.014261599217372184 0.013360392974446651 -0.016504286671988666 0.00065229262358375967 0.0086451612370596689 -0.01851250413046391
leaf_weight=28 22 23 32 21 22 27
leaf_count=28 22 23 32 21 22 27
internal_value=0 -0.00205069 -0.00477726 -0.00807925 -0.0042278 -0.0101279
internal_weight=0 153 130 102 70 48
internal_count=175 153 130 102 70 48
is_linear=0
shrinkage=0.1


Tree=16
num_leaves=7
num_cat=0
split_feature=86 71 73 39 16 19
split_gain=0.457599 0.471689 0.48578 0.41955 0.274535 0.201104
threshold=1.0592972000000003 1.2582026500000001 0.8716744500000001 0.70793140000000021 17.987697500000003 9.7035092500000015
decision_type=2 2 2 2 2 2
left_child=1 2 -1 -3 -5 -4
right_child=-2 3 5 4 -6 -7
leaf_value=-0.0011189748073378817 -0.013847598203990077 0.0077659680641123238 0.0068036856758408246 -0.01538288746157597 -0.0003696069016032631 0.020381083781830969
leaf_weight=39 21 21 20 29 21 24
leaf_count=39 21 21 20 29 21 24
internal_value=0 0.00188831 0.00700698 -0.0040955 -0.00907731 0.0142095
internal_weight=0 154 83 71 50 44
internal_count=175 154 83 71 50 44
is_linear=0
shrinkage=0.1


Tree=17
num_leaves=7
num_cat=0
split_feature=83 30 22 32 71 41
split_gain=0.378388 0.43346 0.482465 0.549467 0.295983 0.156907
threshold=0.21168067000000004 0.035818828000000004 17.940982000000002 1.5526570000000002 1.2582026500000001 0.45167823500000004
decision_type=2 2 2 2 2 2
left_child=1 -1 3 4 -3 -5
right_child=-2 2 -4 5 -6 -7
leaf_value=-0.012284942974327997 0.012592169660187903 0.01804576869933577 -0.010589887308222908 0.0024082081580889367 0.0026639263072204566 -0.0095474575383021777
leaf_weight=31 21 29 28 21 22 23
leaf_count=31 21 29 28 21 22 23
internal_value=0 -0.00171711 0.000946323 0.00434647 0.0114105 -0.00384134
internal_weight=0 154 123 95 51 44
internal_count=175 154 123 95 51 44
is_linear=0
shrinkage=0.1


Tree=18
num_leaves=7
num_cat=0
split_feature=86 44 63 54 10 84
split_gain=0.348443 0.386249 0.620142 0.4082 0.56763 0.477797
threshold=1.0592972000000003 -139.03705499999998 0.85495075500000006 748.40822000000014 0.46249079500000007 0.18541676500000004
decision_type=2 2 2 2 2 2
left_child=1 2 -1 4 -3 -5
right_child=-2 3 -4 5 -6 -7
leaf_value=-0.0011510374704124156 -0.012083628275875181 -0.020858248848129403 0.018379652082663161 -0.0067842254387436522 0.001857991323975677 0.014078655304468196
leaf_weight=37 21 22 29 21 22 23
leaf_count=37 21 22 29 21 22 23
internal_value=0 0.00164777 0.00743063 -0.00268938 -0.00950013 0.00412137
internal_weight=0 154 66 88 44 44
internal_count=175 154 66 88 44 44
is_linear=0
shrinkage=0.1


Tree=19
num_leaves=7
num_cat=0
split_feature=9 23 26 61 42 79
split_gain=0.306964 0.308922 0.327004 0.36564 0.524097 0.229636
threshold=207.51531000000003 0.69271563500000011 20.4194785 0.5318653000000001 1157.9746500000003 -0.0010450347999999999
decision_type=2 2 2 2 2 2
left_child=-1 -2 3 4 -3 -6
right_child=1 2 -4 -5 5 -7
leaf_value=-0.011341635740938641 -0.0065621678704499368 -0.0086898140609264381 -0.0063977876464681076 0.016766686687389246 0.016997688503137657 0.0023781520399180326
leaf_weight=21 36 25 24 26 21 22
leaf_count=21 36 25 24 26 21 22
internal_value=0 0.00154659 0.00402044 0.00668042 0.0028239 0.00951793
internal_weight=0 154 118 94 68 43
internal_count=175 154 118 94 68 43
is_linear=0
shrinkage=0.1


Tree=20
num_leaves=6
num_cat=0
split_feature=81 65 74 73 52
split_gain=0.269619 0.474096 0.429611 0.503303 0.220645
threshold=1.0989385500000002 -1.0619915499999999 -14.618588999999998 0.93709870000000006 2675.7651500000006
decision_type=2 2 2 2 2
left_child=4 -2 -3 -4 -1
right_child=1 2 3 -5 -6
leaf_value=-0.010526773336210422 0.015402196372936793 -0.011243470242390266 -0.004105527973596884 0.013999207973081088 0.001383025004594986
leaf_weight=35 24 26 34 28 28
leaf_count=35 24 26 34 28 28
internal_value=0 0.00294386 -0.000453868 0.0040708 -0.00523353
internal_weight=0 112 88 62 63
internal_count=175 112 88 62 63
is_linear=0
shrinkage=0.1


Tree=21
num_leaves=7
num_cat=0
split_feature=86 44 63 54 10 84
split_gain=0.245248 0.291778 0.465843 0.311712 0.38743 0.334532
threshold=1.0592972000000003 -139.03705499999998 0.85495075500000006 748.40822000000014 0.46249079500000007 0.18541676500000004
decision_type=2 2 2 2 2 2
left_child=1 2 -1 4 -3 -5
right_child=-2 3 -4 5 -6 -7
leaf_value=-0.0010292795140648613 -0.01013759326167582 -0.017722443664785138 0.015898187824621282 -0.005560878221322561 0.0010447809007018804 0.011896190221380928
leaf_weight=37 21 22 29 21 22 23
leaf_count=37 21 22 29 21 22 23
internal_value=0 0.0013824 0.00640855 -0.00238721 -0.00833883 0.00356441
internal_weight=0 154 66 88 44 44
internal_count=175 154 66 88 44 44
is_linear=0
shrinkage=0.1


Tree=22
num_leaves=7
num_cat=0
split_feature=69 42 47 48 1 1
split_gain=0.235481 0.371883 0.364586 0.331314 0.238994 0.234413
threshold=0.43349596500000004 1137.3185500000002 0.21690650000000003 889.44265000000007 0.26017334000000003 0.23005149500000002
decision_type=2 2 2 2 2 2
left_child=5 2 4 -3 -2 -1
right_child=1 3 -4 -5 -6 -7
leaf_value=0.0019288588737254031 0.00026650260668247943 0.019420336962211876 0.007422456643185936 0.0019932152528781446 -0.014837495766749437 -0.010346885124953199
leaf_weight=28 20 20 26 24 22 35
leaf_count=28 20 20 26 24 22 35
internal_value=0 0.00275119 -0.00188399 0.00991463 -0.00764512 -0.004891
internal_weight=0 112 68 44 42 63
internal_count=175 112 68 44 42 63
is_linear=0
shrinkage=0.1


Tree=23
num_leaves=6
num_cat=0
split_feature=8 22 26 57 31
split_gain=0.210322 0.224195 0.240313 0.277802 0.200119
threshold=129.41415500000002 19.052136500000003 20.4194785 -0.54272984999999985 2.0237973000000005
decision_type=2 2 2 2 2
left_child=-1 2 3 4 -2
right_child=1 -3 -4 -5 -6
leaf_value=-0.0093880206867609003 0.013990386334868769 -0.0078257429049066879 -0.0053357794182375077 -0.0019728575859011875 0.0030293976174547311
leaf_weight=21 36 23 28 36 31
leaf_count=21 36 23 28 36 31
internal_value=0 0.00128018 0.00287894 0.00511206 0.00891888
internal_weight=0 154 131 103 67
internal_count=175 154 131 103 67
is_linear=0
shrinkage=0.1


Tree=24
num_leaves=6
num_cat=0
split_feature=47 79 23 71 12
split_gain=0.184519 0.246618 0.228925 0.199907 0.286242
threshold=0.21588464500000001 -0.0032770323999999997 0.67749583000000013 1.5849516000000003 0.026123376500000003
decision_type=2 2 2 2 2
left_child=1 2 -1 4 -3
right_child=-2 3 -4 -5 -6
leaf_value=-0.0037876721090552485 0.006063721447180097 -0.010404752492710639 0.0098437658527732973 -0.012516958307474853 0.0036177358936166043
leaf_weight=22 39 24 28 25 37
leaf_count=22 39 24 28 25 37
internal_value=0 -0.00173886 0.00384593 -0.00498583 -0.00189931
internal_weight=0 136 50 86 61
internal_count=175 136 50 86 61
is_linear=0
shrinkage=0.1


Tree=25
num_leaves=7
num_cat=0
split_feature=70 26 39 39 69 71
split_gain=0.172043 0.232317 0.319648 0.318039 0.290985 0.075404
threshold=-11.891295999999999 19.570918000000002 1.0220104000000003 0.68339092500000009 0.45630772000000003 1.6537538500000002
decision_type=2 2 2 2 2 2
left_child=-1 2 3 -2 5 -5
right_child=1 -3 -4 4 -6 -7
leaf_value=0.0084908375871323421 0.0059679897479532713 -0.0099806093648076074 0.009042231772433627 -0.0072892126627266407 0.0021218315020669252 -0.015972760980948807
leaf_weight=21 31 25 33 20 25 20
leaf_count=21 31 25 33 20 25 20
internal_value=0 -0.00115784 0.000551997 -0.00236652 -0.00634144 -0.011631
internal_weight=0 154 129 96 65 40
internal_count=175 154 129 96 65 40
is_linear=0
shrinkage=0.1


Tree=26
num_leaves=7
num_cat=0
split_feature=30 1 22 23 79 85
split_gain=0.17172 0.278391 0.308901 0.40396 0.26696 0.178676
threshold=0.035818828000000004 0.22892694500000002 17.940982000000002 0.82758555000000011 0.00088173933000000018 0.36179182500000007
decision_type=2 2 2 2 2 2
left_child=5 -2 3 -3 -5 -1
right_child=1 2 -4 4 -6 -7
leaf_value=0.00064456383274360141 0.010237660089624116 0.012617725288817803 -0.010133128109961176 -0.011004838051303523 0.0036034026745192967 -0.012415099102072419
leaf_weight=22 30 26 26 22 29 20
leaf_count=22 30 26 26 22 29 20
internal_value=0 0.00176031 -0.000708818 0.00247342 -0.00269819 -0.00557432
internal_weight=0 133 103 77 51 42
internal_count=175 133 103 77 51 42
is_linear=0
shrinkage=0.1


Tree=27
num_leaves=7
num_cat=0
split_feature=83 53 2 7 7 37
split_gain=0.154304 0.218835 0.356922 0.255129 0.213762 0.209596
threshold=0.21168067000000004 0.10839460300000002 22.446149000000002 494.72796500000004 393.12505000000004 3.6528681500000006
decision_type=2 2 2 2 2 2
left_child=1 5 3 4 -3 -1
right_child=-2 2 -4 -5 -6 -7
leaf_value=-0.012485177601101223 0.0080411994685640649 -0.0042916217051242713 0.010344052674190607 -0.01076260426780209 0.009393987454296579 0.00022176921274513008
leaf_weight=27 21 25 32 24 21 25
leaf_count=27 21 25 32 24 21 25
internal_value=0 -0.00109653 0.001595 -0.00240456 0.00195616 -0.00637607
internal_weight=0 154 102 70 46 52
internal_count=175 154 102 70 46 52
is_linear=0
shrinkage=0.1


Tree=28
num_leaves=8
num_cat=0
split_feature=76 59 61 42 52 49 11
split_gain=0.149011 0.207614 0.32535 0.272749 0.261213 0.13687 0.125472
threshold=-19.342958999999997 -0.50652201999999991 0.41601621000000005 1137.3185500000002 2675.7651500000006 0.47375490000000003 1.3979644000000002
decision_type=2 2 2 2 2 2 2
left_child=-1 2 6 4 -4 -6 -2
right_child=1 -3 3 -5 5 -7 -8
leaf_value=-0.0073193518018039574 -0.013447647655848414 0.0096930933505063877 -0.0095904611550005417 0.011843025326728821 0.010031946130256984 -0.001667216345667839 -0.00238035187219447
leaf_weight=24 20 24 21 25 20 20 21
leaf_count=24 20 24 21 25 20 20 21
internal_value=0 0.00116334 -0.000448581 0.00304617 -0.0005591 0.00418236 -0.00777903
internal_weight=0 151 127 86 61 40 41
internal_count=175 151 127 86 61 40 41
is_linear=0
shrinkage=0.1


Tree=29
num_leaves=7
num_cat=0
split_feature=4 6 23 74 74 15
split_gain=0.133508 0.240263 0.269508 0.260451 0.369373 0.171094
threshold=29.168509500000003 292.54639000000003 0.70607748000000015 -11.653000999999998 -17.485497999999996 0.34253265000000005
decision_type=2 2 2 2 2 2
left_child=5 -2 -3 4 -4 -1
right_child=1 2 3 -5 -6 -7
leaf_value=-0.011556940882001073 0.011200280829639683 -0.0081204348994839588 0.007487260656092655 0.010376396293527095 -0.010637144415902543 0.00055304347936596188
leaf_weight=20 22 31 22 29 23 28
leaf_count=20 22 31 22 29 23 28
internal_value=0 0.00169806 -0.000292882 0.00298623 -0.00177632 -0.00449278
internal_weight=0 127 105 74 45 48
internal_count=175 127 105 74 45 48
is_linear=0
shrinkage=0.1


Tree=30
num_leaves=7
num_cat=0
split_feature=8 39 52 67 65 48
split_gain=0.129794 0.186871 0.201921 0.279504 0.273192 0.136397
threshold=129.41415500000002 0.68339092500000009 2675.7651500000006 1.4981536500000001 -0.97806480499999993 879.17365000000007
decision_type=2 2 2 2 2 2
left_child=-1 -2 5 4 -4 -3
right_child=1 2 3 -5 -6 -7
leaf_value=-0.0073749468462275605 0.0093191544849263591 -0.0087896422536245418 0.0050605486818312787 0.013118487829342485 -0.009618138772202656 0.0011236698467932318
leaf_weight=21 23 35 32 20 21 23
leaf_count=21 23 35 32 20 21 23
internal_value=0 0.00100567 -0.000453944 0.00304557 -0.000755535 -0.0048585
internal_weight=0 154 131 73 53 58
internal_count=175 154 131 73 53 58
is_linear=0
shrinkage=0.1


Tree=31
num_leaves=6
num_cat=0
split_feature=83 44 57 49 20
split_gain=0.112731 0.193837 0.262217 0.252494 0.199319
threshold=0.21168067000000004 -139.03705499999998 -0.54495749999999987 0.41646445000000004 0.2598142650000001
decision_type=2 2 2 2 2
left_child=1 2 -1 -4 -3
right_child=-2 4 3 -5 -6
leaf_value=0.0098148929754582545 0.0068731093513114119 -0.010622430291550701 0.004637267568614334 -0.009189289271831512 2.6267284575181129e-05
leaf_weight=30 21 32 28 25 39
leaf_count=30 21 32 28 25 39
internal_value=0 -0.000937242 0.00234407 -0.00188469 -0.00477315
internal_weight=0 154 83 53 71
internal_count=175 154 83 53 71
is_linear=0
shrinkage=0.1


Tree=32
num_leaves=6
num_cat=0
split_feature=35 23 51 64 11
split_gain=0.10935 0.184714 0.245916 0.26063 0.150183
threshold=3.2795534000000006 0.82758555000000011 -0.77994679999999994 -0.019297837499999995 1.5092374000000002
decision_type=2 2 2 2 2
left_child=1 2 -1 -4 -3
right_child=-2 4 3 -5 -6
leaf_value=-0.0050751979222461103 0.0048275743938378385 -0.0017772203103001965 0.014033523612939145 -0.00071672399528324607 -0.012314651675877118
leaf_weight=31 37 38 23 25 21
leaf_count=31 37 38 23 25 21
internal_value=0 -0.00129435 0.00186736 0.0063511 -0.00552783
internal_weight=0 138 79 48 59
internal_count=175 138 79 48 59
is_linear=0
shrinkage=0.1


Tree=33
num_leaves=7
num_cat=0
split_feature=19 39 83 0 0 73
split_gain=0.104272 0.158499 0.195546 0.174483 0.207771 0.127129
threshold=3.3406361500000004 0.65999107500000009 0.13772356000000002 35.952000000000005 29.898311500000002 0.72649542000000011
decision_type=2 2 2 2 2 2
left_child=-1 -2 -3 4 5 -4
right_child=1 2 3 -5 -6 -7
leaf_value=-0.0066102090202981526 0.0089750226908585137 0.0087409021146595475 -0.006627154972887149 0.0048599488501037871 -0.012872901287240288 0.0023974707576672775
leaf_weight=21 21 20 27 28 21 37
leaf_count=21 21 20 27 28 21 37
internal_value=0 0.000901392 -0.000373392 -0.00198654 -0.00424186 -0.00140979
internal_weight=0 154 133 113 85 64
internal_count=175 154 133 113 85 64
is_linear=0
shrinkage=0.1


Tree=34
num_leaves=7
num_cat=0
split_feature=8 39 52 67 10 71
split_gain=0.106658 0.118552 0.152333 0.205601 0.196955 0.113299
threshold=129.41415500000002 0.68339092500000009 2675.7651500000006 1.4981536500000001 0.46249079500000007 1.5849516000000003
decision_type=2 2 2 2 2 2
left_child=-1 -2 5 4 -4 -3
right_child=1 2 3 -5 -6 -7
leaf_value=-0.0066854172474926426 0.0075332853700155805 -0.00074690196763824775 -0.0056068409181710696 0.011427875366061928 0.0067648411135781891 -0.0099432554694690884
leaf_weight=21 23 37 31 20 22 21
leaf_count=21 23 37 31 20 22 21
internal_value=0 0.000911648 -0.00025093 0.00278866 -0.000471426 -0.00407662
internal_weight=0 154 131 73 53 58
internal_count=175 154 131 73 53 58
is_linear=0
shrinkage=0.1


Tree=35
num_leaves=7
num_cat=0
split_feature=78 37 31 26 1 54
split_gain=0.092398 0.178683 0.185255 0.193118 0.205473 0.152602
threshold=-0.078741012499999985 6.7454403000000012 2.0126428500000002 16.734908000000001 0.23550436500000002 775.04855000000009
decision_type=2 2 2 2 2 2
left_child=-1 2 3 4 -2 -4
right_child=1 -3 5 -5 -6 -7
leaf_value=-0.0062224734308464194 0.0065495684929192076 0.0085861132051795724 -0.0099732229004389269 0.0098485252410173418 -0.0069324423773930626 0.0002855716979709165
leaf_weight=21 20 25 29 25 26 29
leaf_count=21 20 25 29 25 26 29
internal_value=0 0.000848519 -0.000651015 0.0027741 -0.0010707 -0.00484383
internal_weight=0 154 129 71 46 58
internal_count=175 154 129 71 46 58
is_linear=0
shrinkage=0.1


Tree=36
num_leaves=7
num_cat=0
split_feature=66 75 35 51 49 69
split_gain=0.0970069 0.226375 0.140299 0.134691 0.1653 0.239983
threshold=1.2259974500000002 -3.0223170999999995 3.2795534000000006 -0.50361510999999992 0.41070165000000008 0.52345940000000013
decision_type=2 2 2 2 2 2
left_child=1 -1 3 4 -3 -6
right_child=-2 2 -4 -5 5 -7
leaf_value=-0.0097926018371557195 0.0063757760538941336 0.0079053858954769868 0.0073482385908181852 -0.0082399121741764253 -0.007078026186516379 0.0058314526608834669
leaf_weight=24 21 24 26 20 36 24
leaf_count=24 21 24 26 20 36 24
internal_value=0 -0.000869424 0.000777932 -0.000864645 0.000891371 -0.00191423
internal_weight=0 154 130 104 84 60
internal_count=175 154 130 104 84 60
is_linear=0
shrinkage=0.1


Tree=37
num_leaves=6
num_cat=0
split_feature=86 80 66 69 38
split_gain=0.0875335 0.182793 0.162696 0.157165 0.183664
threshold=1.0592972000000003 0.045010764000000002 0.38089274000000006 0.43349596500000004 14.97579475
decision_type=2 2 2 2 2
left_child=1 -1 -3 -4 -5
right_child=-2 2 3 4 -6
leaf_value=0.0069523674599524287 -0.0060564605829616395 -0.0064882716163992887 -0.0057047235779464252 -0.00077157400519354278 0.01066786752641201
leaf_weight=37 21 38 22 32 25
leaf_count=37 21 38 22 32 25
internal_value=0 0.000825881 -0.00111155 0.00147471 0.00424572
internal_weight=0 154 117 79 57
internal_count=175 154 117 79 57
is_linear=0
shrinkage=0.1


Tree=38
num_leaves=7
num_cat=0
split_feature=83 44 64 47 78 81
split_gain=0.0795734 0.124631 0.163304 0.172178 0.14043 0.0961971
threshold=0.21168067000000004 -139.03705499999998 -0.019621348999999996 0.21135804500000002 -0.050498278499999993 1.0989385500000002
decision_type=2 2 2 2 2 2
left_child=1 2 -1 5 -3 -4
right_child=-2 4 3 -5 -6 -7
leaf_value=0.0092297590422359393 0.0057745159448434917 0.00064716168280158724 -0.0095736236590892084 0.0065122353533903768 -0.0082484010404894233 0.00023438859730958938
leaf_weight=22 21 35 20 21 36 20
leaf_count=22 21 35 20 21 36 20
internal_value=0 -0.000787434 0.0018437 -0.000820127 -0.00386326 -0.00466962
internal_weight=0 154 83 61 71 40
internal_count=175 154 83 61 71 40
is_linear=0
shrinkage=0.1


Tree=39
num_leaves=7
num_cat=0
split_feature=8 45 13 82 78 13
split_gain=0.079372 0.0962958 0.114421 0.142612 0.146892 0.178061
threshold=129.41415500000002 -0.74765996499999987 0.15549992000000004 2.0086677000000006 -0.060474285499999995 0.050697806000000005
decision_type=2 2 2 2 2 2
left_child=-1 -2 3 4 -3 -6
right_child=1 2 -4 -5 5 -7
leaf_value=-0.0057672027143694108 -0.0045181253845969754 -0.0043534786440432077 0.0072405397351230352 -0.0060680108413530085 -0.00067590942970760493 0.011515971241518855
leaf_weight=21 28 21 31 26 23 25
leaf_count=21 28 21 31 26 23 25
internal_value=0 0.000786437 0.00196523 0.000243811 0.00262218 0.00567403
internal_weight=0 154 126 95 69 48
internal_count=175 154 126 95 69 48
is_linear=0
shrinkage=0.1


Tree=40
num_leaves=7
num_cat=0
split_feature=79 46 35 73 20 28
split_gain=0.0782213 0.11729 0.134772 0.145214 0.0970023 0.0568352
threshold=-0.0043374984499999995 1588.0112500000002 3.2795534000000006 1.20718035 0.2598142650000001 3.2668390500000002
decision_type=2 2 2 2 2 2
left_child=-1 5 3 4 -3 -2
right_child=1 2 -4 -5 -6 -7
leaf_value=0.0043053996858789644 -0.0088239855704490434 -0.0080508359915776439 0.0074678888311609628 0.0057414456824993812 0.00094000902317930017 -0.001854895044118166
leaf_weight=34 22 28 24 21 21 25
leaf_count=34 22 28 24 21 21 25
internal_value=0 -0.00103818 0.00100124 -0.0012159 -0.00419762 -0.00511702
internal_weight=0 141 94 70 49 47
internal_count=175 141 94 70 49 47
is_linear=0
shrinkage=0.1


Tree=41
num_leaves=8
num_cat=0
split_feature=78 37 31 26 1 9 27
split_gain=0.0794105 0.11837 0.125151 0.128893 0.11778 0.0986542 0.0773955
threshold=-0.078741012499999985 6.9908452000000008 2.0126428500000002 16.734908000000001 0.23550436500000002 301.99365500000005 1.0866833000000002
decision_type=2 2 2 2 2 2 2
left_child=-1 2 3 4 -2 -4 -7
right_child=1 -3 5 -5 -6 6 -8
leaf_value=-0.0057686016495738721 0.0050540718622505663 0.0075776663947511799 -0.0094527699123136705 0.0080934683335586819 -0.005153257454870842 -0.0052497245674021547 0.0035477468691533435
leaf_weight=21 20 22 20 26 26 20 20
leaf_count=21 20 22 20 26 26 20 20
internal_value=0 0.000786627 -0.000345212 0.00246565 -0.000715288 -0.00371825 -0.000850989
internal_weight=0 154 132 72 46 60 40
internal_count=175 154 132 72 46 60 40
is_linear=0
shrinkage=0.1


Tree=42
num_leaves=7
num_cat=0
split_feature=29 45 51 47 5 4
split_gain=0.0759675 0.0998705 0.121326 0.126556 0.115607 0.111683
threshold=-7.7892719999999995 -0.74765996499999987 -0.45821106999999994 0.19011096500000005 8.2182340000000007 29.772089500000003
decision_type=2 2 2 2 2 2
left_child=-1 -2 3 4 -3 -5
right_child=1 2 -4 5 -6 -7
leaf_value=0.0056421625206158274 -0.0068469567264875649 -0.0082171309087425478 -0.0068718256673309958 -0.00028655116717951992 0.0021784064785131943 0.0078754448313511135
leaf_weight=21 23 20 20 30 23 38
leaf_count=21 23 20 20 30 23 38
internal_value=0 -0.000769386 0.000297669 0.00158947 -0.00265673 0.00427456
internal_weight=0 154 131 111 43 68
internal_count=175 154 131 111 43 68
is_linear=0
shrinkage=0.1


Tree=43
num_leaves=7
num_cat=0
split_feature=78 57 86 84 84 52
split_gain=0.0682683 0.102906 0.131408 0.148516 0.134073 0.0634059
threshold=-0.078741012499999985 -0.75370127999999992 1.0592972000000003 0.15812660000000003 0.16479610500000003 2675.7651500000006
decision_type=2 2 2 2 2 2
left_child=-1 -2 3 -3 -5 -6
right_child=1 2 -4 4 5 -7
leaf_value=-0.005348614505713895 -0.0037870938886235789 0.010591955288934212 -0.0049498048965774836 -0.0054467148170806471 0.0011427128783844669 0.0082620485886846767
leaf_weight=21 38 24 21 20 29 22
leaf_count=21 38 24 21 20 29 22
internal_value=0 0.000729357 0.00220888 0.00379133 0.00149253 0.0042138
internal_weight=0 154 116 95 71 51
internal_count=175 154 116 95 71 51
is_linear=0
shrinkage=0.1


Tree=44
num_leaves=7
num_cat=0
split_feature=66 75 54 49 87 81
split_gain=0.0716124 0.138724 0.0911894 0.111195 0.151982 0.0713938
threshold=1.2259974500000002 -3.0223170999999995 833.51291000000015 0.41070165000000008 -33.116657999999994 1.5499023500000002
decision_type=2 2 2 2 2 2
left_child=1 -1 3 -3 5 -5
right_child=-2 2 -4 4 -6 -7
leaf_value=-0.0077322494413238022 0.0054780460539318272 0.0064581102562240424 -0.0041904300962003968 -5.8809985690142801e-05 0.0066930709438747724 -0.0082281205535400664
leaf_weight=24 21 36 31 23 20 20
leaf_count=24 21 36 31 23 20 20
internal_value=0 -0.000747006 0.000542577 0.00202463 -0.000508788 -0.00385849
internal_weight=0 154 130 99 63 43
internal_count=175 154 130 99 63 43
is_linear=0
shrinkage=0.1


end of trees

feature_importances:
mfcc1V_sma3nz_stddevNorm=16
mfcc2V_sma3nz_stddevNorm=11
MeanVoicedSegmentLengthSec=9
StddevUnvoicedSegmentLength=9
logRelF0-H1-A3_sma3nz_stddevNorm=8
slopeV500-1500_sma3nz_amean=8
F2bandwidth_sma3nz_stddevNorm=7
mfcc3_sma3_amean=6
F0semitoneFrom27.5Hz_sma3nz_stddevNorm=5
mfcc1_sma3_stddevNorm=5
jitterLocal_sma3nz_amean=5
F1frequency_sma3nz_stddevNorm=5
F2frequency_sma3nz_stddevNorm=5
F3frequency_sma3nz_amean=5
slopeV500-1500_sma3nz_stddevNorm=5
spectralFluxV_sma3nz_amean=5
mfcc3V_sma3nz_stddevNorm=5
slopeUV0-500_sma3nz_amean=5
slopeUV500-1500_sma3nz_amean=5
loudnessPeaksPerSec=5
StddevVoicedSegmentLengthSec=5
F0semitoneFrom27.5Hz_sma3nz_meanFallingSlope=4
loudness_sma3_pctlrange0-2=4
jitterLocal_sma3nz_stddevNorm=4
F1bandwidth_sma3nz_amean=4
F1amplitudeLogRelF0_sma3nz_amean=4
F3bandwidth_sma3nz_amean=4
mfcc4V_sma3nz_amean=4
F0semitoneFrom27.5Hz_sma3nz_percentile80.0=3
F0semitoneFrom27.5Hz_sma3nz_stddevFallingSlope=3
loudness_sma3_amean=3
loudness_sma3_percentile50.0=3
mfcc1_sma3_amean=3
HNRdBACF_sma3nz_stddevNorm=3
logRelF0-H1-H2_sma3nz_stddevNorm=3
F2amplitudeLogRelF0_sma3nz_stddevNorm=3
F3amplitudeLogRelF0_sma3nz_stddevNorm=3
hammarbergIndexV_sma3nz_stddevNorm=3
spectralFluxV_sma3nz_stddevNorm=3
mfcc3V_sma3nz_amean=3
hammarbergIndexUV_sma3nz_amean=3
spectralFluxUV_sma3nz_amean=3
F0semitoneFrom27.5Hz_sma3nz_amean=2
F0semitoneFrom27.5Hz_sma3nz_percentile50.0=2
F0semitoneFrom27.5Hz_sma3nz_pctlrange0-2=2
F0semitoneFrom27.5Hz_sma3nz_stddevRisingSlope=2
loudness_sma3_stddevNorm=2
loudness_sma3_percentile20.0=2
loudness_sma3_meanFallingSlope=2
loudness_sma3_stddevFallingSlope=2
spectralFlux_sma3_amean=2
spectralFlux_sma3_stddevNorm=2
mfcc2_sma3_stddevNorm=2
mfcc4_sma3_amean=2
F1amplitudeLogRelF0_sma3nz_stddevNorm=2
F2bandwidth_sma3nz_amean=2
F2amplitudeLogRelF0_sma3nz_amean=2
F3bandwidth_sma3nz_stddevNorm=2
slopeV0-500_sma3nz_stddevNorm=2
mfcc2V_sma3nz_amean=2
mfcc4V_sma3nz_stddevNorm=2
VoicedSegmentsPerSec=2
MeanUnvoicedSegmentLength=2
F0semitoneFrom27.5Hz_sma3nz_percentile20.0=1
F0semitoneFrom27.5Hz_sma3nz_meanRisingSlope=1
loudness_sma3_meanRisingSlope=1
mfcc3_sma3_stddevNorm=1
mfcc4_sma3_stddevNorm=1
shimmerLocaldB_sma3nz_amean=1
logRelF0-H1-A3_sma3nz_amean=1
F1frequency_sma3nz_amean=1
F1bandwidth_sma3nz_stddevNorm=1
F2frequency_sma3nz_amean=1
F3frequency_sma3nz_stddevNorm=1
alphaRatioV_sma3nz_amean=1
alphaRatioV_sma3nz_stddevNorm=1
alphaRatioUV_sma3nz_amean=1
equivalentSoundLevel_dBp=1

parameters:
[boosting: gbdt]
[objective: regression]
[metric: l2]
[tree_learner: serial]
[device_type: cpu]
[data_sample_strategy: bagging]
[data: ]
[valid: ]
[num_iterations: 1000]
[learning_rate: 0.1]
[num_leaves: 31]
[num_threads: 0]
[seed: 0]
[deterministic: 0]
[force_col_wise: 0]
[force_row_wise: 0]
[histogram_pool_size: -1]
[max_depth: -1]
[min_data_in_leaf: 20]
[min_sum_hessian_in_leaf: 0.001]
[bagging_fraction: 1]
[pos_bagging_fraction: 1]
[neg_bagging_fraction: 1]
[bagging_freq: 0]
[bagging_seed: 3]
[feature_fraction: 1]
[feature_fraction_bynode: 1]
[feature_fraction_seed: 2]
[extra_trees: 0]
[extra_seed: 6]
[early_stopping_round: 0]
[early_stopping_min_delta: 0]
[first_metric_only: 0]
[max_delta_step: 0]
[lambda_l1: 0]
[lambda_l2: 0]
[linear_lambda: 0]
[min_gain_to_split: 0]
[drop_rate: 0.1]
[max_drop: 50]
[skip_drop: 0.5]
[xgboost_dart_mode: 0]
[uniform_drop: 0]
[drop_seed: 4]
[top_rate: 0.2]
[other_rate: 0.1]
[min_data_per_group: 100]
[max_cat_threshold: 32]
[cat_l2: 10]
[cat_smooth: 10]
[max_cat_to_onehot: 4]
[top_k: 20]
[monotone_constraints: ]
[monotone_constraints_method: basic]
[monotone_penalty: 0]
[feature_contri: ]
[forcedsplits_filename: ]
[refit_decay_rate: 0.9]
[cegb_tradeoff: 1]
[cegb_penalty_split: 0]
[cegb_penalty_feature_lazy: ]
[cegb_penalty_feature_coupled: ]
[path_smooth: 0]
[interaction_constraints: ]
[verbosity: -1]
[saved_feature_importance_type: 0]
[use_quantized_grad: 0]
[num_grad_quant_bins: 4]
[quant_train_renew_leaf: 0]
[stochastic_rounding: 1]
[linear_tree: 0]
[max_bin: 255]
[max_bin_by_feature: ]
[min_data_in_bin: 3]
[bin_construct_sample_cnt: 200000]
[data_random_seed: 1]
[is_enable_sparse: 1]
[enable_bundle: 1]
[use_missing: 1]
[zero_as_missing: 0]
[feature_pre_filter: 1]
[pre_partition: 0]
[two_round: 0]
[header: 0]
[label_column: ]
[weight_column: ]
[group_column: ]
[ignore_column: ]
[categorical_feature: ]
[forcedbins_filename: ]
[precise_float_parser: 0]
[parser_config_file: ]
[objective_seed: 5]
[num_class: 1]
[is_unbalance: 0]
[scale_pos_weight: 1]
[sigmoid: 1]
[boost_from_average: 1]
[reg_sqrt: 0]
[alpha: 0.9]
[fair_c: 1]
[poisson_max_delta_step: 0.7]
[tweedie_variance_power: 1.5]
[lambdarank_truncation_level: 30]
[lambdarank_norm: 1]
[label_gain: ]
[lambdarank_position_bias_regularization: 0]
[eval_at: ]
[multi_error_top_k: 1]
[auc_mu_weights: ]
[num_machines: 1]
[local_listen_port: 12400]
[time_out: 120]
[machine_list_filename: ]
[machines: ]
[gpu_platform_id: -1]
[gpu_device_id: -1]
[gpu_use_dp: 0]
[num_gpu: 1]

end of parameters

pandas_categorical:[]
