tree
version=v4
num_class=1
num_tree_per_iteration=1
label_index=0
max_feature_idx=89
objective=regression
feature_names=F0semitoneFrom27.5Hz_sma3nz_amean F0semitoneFrom27.5Hz_sma3nz_stddevNorm F0semitoneFrom27.5Hz_sma3nz_percentile20.0 F0semitoneFrom27.5Hz_sma3nz_percentile50.0 F0semitoneFrom27.5Hz_sma3nz_percentile80.0 F0semitoneFrom27.5Hz_sma3nz_pctlrange0-2 F0semitoneFrom27.5Hz_sma3nz_meanRisingSlope F0semitoneFrom27.5Hz_sma3nz_stddevRisingSlope F0semitoneFrom27.5Hz_sma3nz_meanFallingSlope F0semitoneFrom27.5Hz_sma3nz_stddevFallingSlope loudness_sma3_amean loudness_sma3_stddevNorm loudness_sma3_percentile20.0 loudness_sma3_percentile50.0 loudness_sma3_percentile80.0 loudness_sma3_pctlrange0-2 loudness_sma3_meanRisingSlope loudness_sma3_stddevRisingSlope loudness_sma3_meanFallingSlope loudness_sma3_stddevFallingSlope spectralFlux_sma3_amean spectralFlux_sma3_stddevNorm mfcc1_sma3_amean mfcc1_sma3_stddevNorm mfcc2_sma3_amean mfcc2_sma3_stddevNorm mfcc3_sma3_amean mfcc3_sma3_stddevNorm mfcc4_sma3_amean mfcc4_sma3_stddevNorm jitterLocal_sma3nz_amean jitterLocal_sma3nz_stddevNorm shimmerLocaldB_sma3nz_amean shimmerLocaldB_sma3nz_stddevNorm HNRdBACF_sma3nz_amean HNRdBACF_sma3nz_stddevNorm logRelF0-H1-H2_sma3nz_amean logRelF0-H1-H2_sma3nz_stddevNorm logRelF0-H1-A3_sma3nz_amean logRelF0-H1-A3_sma3nz_stddevNorm F1frequency_sma3nz_amean F1frequency_sma3nz_stddevNorm F1bandwidth_sma3nz_amean F1bandwidth_sma3nz_stddevNorm F1amplitudeLogRelF0_sma3nz_amean F1amplitudeLogRelF0_sma3nz_stddevNorm F2frequency_sma3nz_amean F2frequency_sma3nz_stddevNorm F2bandwidth_sma3nz_amean F2bandwidth_sma3nz_stddevNorm F2amplitudeLogRelF0_sma3nz_amean F2amplitudeLogRelF0_sma3nz_stddevNorm F3frequency_sma3nz_amean F3frequency_sma3nz_stddevNorm F3bandwidth_sma3nz_amean F3bandwidth_sma3nz_stddevNorm F3amplitudeLogRelF0_sma3nz_amean F3amplitudeLogRelF0_sma3nz_stddevNorm alphaRatioV_sma3nz_amean alphaRatioV_sma3nz_stddevNorm hammarbergIndexV_sma3nz_amean hammarbergIndexV_sma3nz_stddevNorm slopeV0-500_sma3nz_amean slopeV0-500_sma3nz_stddevNorm slopeV500-1500_sma3nz_amean slopeV500-1500_sma3nz_stddevNorm spectralFluxV_sma3nz_amean spectralFluxV_sma3nz_stddevNorm mfcc1V_sma3nz_amean mfcc1V_sma3nz_stddevNorm mfcc2V_sma3nz_amean mfcc2V_sma3nz_stddevNorm mfcc3V_sma3nz_amean mfcc3V_sma3nz_stddevNorm mfcc4V_sma3nz_amean mfcc4V_sma3nz_stddevNorm alphaRatioUV_sma3nz_amean hammarbergIndexUV_sma3nz_amean slopeUV0-500_sma3nz_amean slopeUV500-1500_sma3nz_amean spectralFluxUV_sma3nz_amean loudnessPeaksPerSec VoicedSegmentsPerSec MeanVoicedSegmentLengthSec StddevVoicedSegmentLengthSec MeanUnvoicedSegmentLength StddevUnvoicedSegmentLength equivalentSoundLevel_dBp gender_Female gender_Male
feature_infos=[18.470849999999999:41.658969999999997] [0.1510408:0.41510358000000003] [13.073807:38.603560000000002] [17.103532999999999:41.486989999999999] [22.096340000000001:47.843257999999999] [5.0956535000000001:24.631702000000001] [196.80121:565.96159999999998] [246.6429:772.31269999999995] [65.024704:370.96323000000001] [140.93783999999999:704.61584000000005] [0.049598709999999997:1.8187209] [1.0161495:2.4298038000000002] [0.008859268:0.25325482999999999] [0.015273363:0.70553385999999996] [0.074674845000000004:3.0820436] [0.064064469999999998:2.8359809999999999] [1.2800742000000001:65.690920000000006] [1.0174985999999999:57.645397000000003] [1.1143409:57.41751] [0.97689219999999999:53.540905000000002] [0.0095376200000000001:1.7056311] [1.1539242999999999:3.5321345000000002] [7.0800257000000002:26.818565] [0.51737169999999999:1.5750073] [-8.8929670000000005:17.857351000000001] [-32.546214999999997:134.88371000000001] [3.8596113000000001:27.098986] [0.47685894000000001:3.9853032000000002] [-16.321664999999999:12.52453] [-162.11091999999999:191.94896] [0.022285625:0.097881629999999997] [1.3544058999999999:2.6214895] [0.92997587000000004:2.5989232000000002] [0.68644749999999999:1.0978707999999999] [-3.1264143:9.3170110000000008] [-47.951509999999999:26.097156999999999] [-1.4260329:9.7938810000000007] [-449.92334:27.034586000000001] [-0.78863720000000004:30.938616] [-40.041400000000003:24.862682] [468.37950000000001:926.22760000000005] [0.26153569999999998:0.52769790000000005] [807.42895999999996:1359.3389999999999] [0.18067359999999999:0.40347690000000003] [-194.2431:-63.955406000000004] [-1.2661967000000001:-0.17088328] [1453.8792000000001:2023.3087] [0.13821952000000001:0.24836063] [588.88459999999998:1128.7885000000001] [0.29107946000000001:0.60250119999999996] [-193.82623000000001:-63.268214999999998] [-1.2102025000000001:-0.17403536999999999] [2454.6361999999999:3019.2622000000001] [0.082018696000000002:0.14482640999999999] [543.21159999999998:973.14056000000005] [0.31354251999999999:0.75960404000000004] [-193.82434000000001:-63.621932999999999] [-1.2004044:-0.17260294000000001] [-23.718513000000002:-1.5029105] [-5.5012400000000001:-0.349555] [8.4875369999999997:34.599589999999999] [0.27319014000000003:1.5033771] [-0.071589134999999998:0.072340749999999995] [-75.440479999999994:35.218623999999998] [-0.025302297000000001:-0.0043927793999999996] [-3.2824764000000002:-0.56470830000000005] [0.035405535000000002:2.6478136000000001] [0.65634130000000002:2.3849075000000002] [8.3596210000000006:34.175735000000003] [0.30611803999999998:1.2676936000000001] [-18.891994:18.612337] [-980.02260000000001:78.158450000000002] [-7.3833200000000003:28.657537000000001] [-24.179438000000001:6.0788035000000002] [-37.136642000000002:4.4584484] [-7065.6255000000001:114.406586] [-23.744855999999999:-6.9370832] [16.220215:34.844948000000002] [-0.097658490000000001:-0.00021947897] [-0.011115715:0.0075702469999999996] [0.0080596420000000005:1.0672451999999999] [0.18114830000000001:2.7603300000000002] [0.50509375000000001:3.1914202999999999] [0.059945576:0.30472361999999997] [0.052917222999999999:0.44364009999999998] [0.100622006:1.6800752000000001] [0.12056318000000001:2.8065850000000001] [-61.808759999999999:-15.336327000000001] [0:1] [0:1]
tree_sizes=707 721 643 726 723 727 722 646 726 729 734 734 736 736 732 736 734 721 655 739 652 738 737 741 739 654 734

Tree=0
num_leaves=7
num_cat=0
split_feature=22 12 78 37 6 49
split_gain=5.3608 3.17173 2.16059 1.16037 0.966291 0.209933
threshold=14.997595500000001 0.026818974500000002 -0.059767664999999991 4.7961513500000006 356.49885000000006 0.44217193500000002
decision_type=2 2 2 2 2 2
left_child=2 -2 -1 4 -3 -4
right_child=1 3 5 -5 -6 -7
leaf_value=0.37350140543419774 0.35492063930346851 0.39400794204235784 0.3469293965491021 0.37928571940000566 0.42269151769948671 0.33428571794714246
leaf_weight=34 21 24 29 20 23 24
leaf_count=34 21 24 29 20 23 24
internal_value=0.371429 0.388831 0.353826 0.39946 0.408045 0.341204
internal_weight=0 88 87 67 47 53
internal_count=175 88 87 67 47 53
is_linear=0
shrinkage=1


Tree=1
num_leaves=7
num_cat=0
split_feature=22 12 78 37 6 49
split_gain=4.34225 2.5691 1.75008 0.9399 0.782695 0.170046
threshold=14.997595500000001 0.026818974500000002 -0.059767664999999991 4.7961513500000006 356.49885000000006 0.44217193500000002
decision_type=2 2 2 2 2 2
left_child=2 -2 -1 4 -3 -4
right_child=1 3 5 -5 -6 -7
leaf_value=0.0018655449151992799 -0.014857141833220209 0.020321429086228214 -0.022049261497911709 0.007071429155766965 0.046136645292458332 -0.033428570628166197
leaf_weight=34 21 24 29 20 23 24
leaf_count=34 21 24 29 20 23 24
internal_value=0 0.0156623 -0.0158424 0.0252281 0.0329544 -0.0272022
internal_weight=0 88 87 67 47 53
internal_count=175 88 87 67 47 53
is_linear=0
shrinkage=0.1


Tree=2
num_leaves=6
num_cat=0
split_feature=22 12 78 69 82
split_gain=3.51722 2.08097 1.41756 0.848102 0.158365
threshold=14.997595500000001 0.026818974500000002 -0.059767664999999991 0.4232496300000001 1.8853240000000002
decision_type=2 2 2 2 2
left_child=2 -2 -1 -3 -4
right_child=1 3 4 -5 -6
leaf_value=0.0016789919313262491 -0.013371429698807853 0.034471789805684237 -0.020053745809127579 0.011947426338280951 -0.031229666443098159
leaf_weight=34 21 32 32 35 21
leaf_count=34 21 32 32 35 21
internal_value=0 0.0140961 -0.0142581 0.0227053 -0.0244819
internal_weight=0 88 87 67 53
internal_count=175 88 87 67 53
is_linear=0
shrinkage=0.1


Tree=3
num_leaves=7
num_cat=0
split_feature=40 23 3 67 28 78
split_gain=2.8577 1.91535 0.903744 0.835658 0.82706 0.713873
threshold=587.63755000000003 0.75892772000000008 25.325623000000004 1.4463616500000003 3.5953852000000004 -0.049475453999999995
decision_type=2 2 2 2 2 2
left_child=1 3 -2 -1 -3 -4
right_child=2 4 5 -5 -6 -7
leaf_value=0.011015956992140183 -0.033007230895704461 -0.015336927524940284 0.0063221429078839722 0.03613388163072092 0.0099047504626214519 -0.018235945292138334
leaf_weight=26 21 27 20 27 25 29
leaf_count=26 21 27 20 27 25 29
internal_value=0 0.0104338 -0.0156507 0.0238119 -0.00320151 -0.00821224
internal_weight=0 105 70 53 52 49
internal_count=175 105 70 53 52 49
is_linear=0
shrinkage=0.1


Tree=4
num_leaves=7
num_cat=0
split_feature=22 12 78 47 47 49
split_gain=2.39286 1.51102 1.06995 0.701 1.14732 0.145214
threshold=14.997595500000001 0.026818974500000002 -0.059767664999999991 0.20018199500000003 0.18461587500000001 0.44217193500000002
decision_type=2 2 2 2 2 2
left_child=2 -2 -1 4 -3 -4
right_child=1 3 5 -5 -6 -7
leaf_value=0.00208548788967378 -0.011778928343916223 0.0089800812473351307 -0.015880818510877675 0.0032825006917119024 0.040291945710778237 -0.026396492992838222
leaf_weight=34 21 22 29 20 25 24
leaf_count=34 21 22 29 20 25 24
internal_value=0 0.0116267 -0.0117604 0.0189628 0.0256353 -0.0206426
internal_weight=0 88 87 67 47 53
internal_count=175 88 87 67 47 53
is_linear=0
shrinkage=0.1


Tree=5
num_leaves=7
num_cat=0
split_feature=40 69 63 2 38 78
split_gain=2.07024 1.34901 1.3645 0.764018 0.754993 0.557569
threshold=587.63755000000003 0.41698460000000004 1.3310396500000001 18.055576500000004 15.937731500000002 -0.049475453999999995
decision_type=2 2 2 2 2 2
left_child=1 -1 4 -2 -3 -5
right_child=3 2 -4 5 -6 -7
leaf_value=0.026393146127943069 -0.029839574210345745 0.005978418979793787 0.019460202305129282 0.0062197616416960963 -0.019655998499581107 -0.015335773328940075
leaf_weight=31 20 20 27 20 27 30
leaf_count=31 20 20 27 20 27 30
internal_value=0 0.00888066 0.00154435 -0.013321 -0.00874774 -0.00671356
internal_weight=0 105 74 70 47 50
internal_count=175 105 74 70 47 50
is_linear=0
shrinkage=0.1


Tree=6
num_leaves=7
num_cat=0
split_feature=40 62 23 54 3 14
split_gain=1.67689 1.16992 1.31446 0.704601 0.67697 0.464555
threshold=587.63755000000003 0.03496202150000001 0.74547964000000011 767.23597000000007 25.325623000000004 0.62925305000000009
decision_type=2 2 2 2 2 2
left_child=1 2 -1 -4 -2 -6
right_child=4 -3 3 -5 5 -7
leaf_value=0.0272894276600135 -0.027010760137013031 -0.01139927967451513 -0.011964384499005973 0.013699766969227273 -0.013636998228471857 0.0061738212779164324
leaf_weight=38 21 24 20 23 29 20
leaf_count=38 21 24 20 23 29 20
internal_value=0 0.0079926 0.0137383 0.00176295 -0.0119889 -0.00555095
internal_weight=0 105 81 43 70 49
internal_count=175 105 81 43 70 49
is_linear=0
shrinkage=0.1


Tree=7
num_leaves=6
num_cat=0
split_feature=22 69 63 78 49
split_gain=1.39408 0.923961 1.60669 0.753173 0.135078
threshold=14.997595500000001 0.41412948000000011 1.2792578500000003 -0.059767664999999991 0.44217193500000002
decision_type=2 2 2 2 2
left_child=3 -2 -3 -1 -5
right_child=1 2 -4 4 -6
leaf_value=0.002640308505472015 0.022429636586457493 -0.018430069791308294 0.015797731505517731 -0.011836140243143872 -0.021978189237415791
leaf_weight=34 32 24 32 29 24
leaf_count=34 32 24 32 29 24
internal_value=0 0.00887448 0.00112867 -0.00897648 -0.0164288
internal_weight=0 88 56 87 53
internal_count=175 88 56 87 53
is_linear=0
shrinkage=0.1


Tree=8
num_leaves=7
num_cat=0
split_feature=40 42 46 6 2 30
split_gain=1.23413 0.922343 1.0468 0.765773 0.565587 0.433148
threshold=587.63755000000003 1141.2006000000003 1517.5716500000001 306.29313500000006 18.055576500000004 0.03811493500000001
decision_type=2 2 2 2 2 2
left_child=1 -1 -3 -4 -2 -6
right_child=4 2 3 -5 5 -7
leaf_value=-0.0079623808866987628 -0.024497583955526356 -0.0068071530759334564 0.0048944620326870966 0.029181936613338833 -0.014684489400773918 0.0039903653026730932
leaf_weight=30 20 20 21 34 23 27
leaf_count=30 20 20 21 34 23 27
internal_value=0 0.00685671 0.0127844 0.0199085 -0.0102851 -0.00460007
internal_weight=0 105 75 55 70 50
internal_count=175 105 75 55 70 50
is_linear=0
shrinkage=0.1


Tree=9
num_leaves=7
num_cat=0
split_feature=77 63 61 67 30 64
split_gain=1.06537 1.47809 1.42009 0.592961 0.475515 0.401128
threshold=29.170052500000001 1.2792578500000003 0.53070458000000009 1.4952917500000003 0.033973697500000004 -0.020193032499999996
decision_type=2 2 2 2 2 2
left_child=1 4 3 -3 -1 -6
right_child=-2 2 -4 -5 5 -7
leaf_value=0.001367915514856577 0.01957106453871044 0.0078885357988917309 -0.011132496327161789 0.031431889496743685 -0.02554440012404316 -0.0094201881386753589
leaf_weight=20 24 23 25 20 27 36
leaf_count=20 24 23 25 20 27 36
internal_value=0 -0.00311063 0.00782003 0.0188389 -0.0120659 -0.0163306
internal_weight=0 151 68 43 83 63
internal_count=175 151 68 43 83 63
is_linear=0
shrinkage=0.1


Tree=10
num_leaves=7
num_cat=0
split_feature=40 62 23 3 54 14
split_gain=0.902725 0.709979 0.684717 0.439826 0.425319 0.322427
threshold=587.63755000000003 0.03496202150000001 0.74547964000000011 25.325623000000004 767.23597000000007 0.62925305000000009
decision_type=2 2 2 2 2 2
left_child=1 2 -1 -2 -4 -5
right_child=3 -3 4 5 -6 -7
leaf_value=0.020120641858758115 -0.020904588380030224 -0.0092422809917479757 -0.0089681284222751859 -0.010343649957714411 0.010971303203183673 0.0061607581935822966
leaf_weight=38 21 24 20 29 23 20
leaf_count=38 21 24 20 29 23 20
internal_value=0 0.00586426 0.0103403 -0.00879639 0.00169715 -0.00360716
internal_weight=0 105 81 70 43 49
internal_count=175 105 81 70 43 49
is_linear=0
shrinkage=0.1


Tree=11
num_leaves=7
num_cat=0
split_feature=77 63 61 67 74 63
split_gain=0.777226 1.04989 1.04955 0.442136 0.434053 0.412806
threshold=29.170052500000001 1.2792578500000003 0.53070458000000009 1.4952917500000003 -13.370408249999999 -1.5847107499999997
decision_type=2 2 2 2 2 2
left_child=1 4 3 -3 -1 -6
right_child=-2 2 -4 -5 5 -7
leaf_value=-6.9055307124342243e-05 0.016716193670678572 0.0065726262071858282 -0.0097379967868328095 0.026902425996959214 -0.0074554469467451173 -0.024854427874088286
leaf_weight=28 24 23 25 20 30 25
leaf_count=28 24 23 25 20 30 25
internal_value=0 -0.00265688 0.00655543 0.0160283 -0.0102043 -0.0153641
internal_weight=0 151 68 43 83 55
internal_count=175 151 68 43 83 55
is_linear=0
shrinkage=0.1


Tree=12
num_leaves=7
num_cat=0
split_feature=69 71 55 63 74 23
split_gain=0.646416 0.577243 0.79955 0.638514 0.468544 0.415383
threshold=0.41412948000000011 1.0322634500000003 0.55319234500000014 0.92378598000000001 -15.350655999999999 0.73529752000000015
decision_type=2 2 2 2 2 2
left_child=5 3 -3 -2 -5 -1
right_child=1 2 -4 4 -6 -7
leaf_value=0.020297365449368956 -0.021163114426391468 -0.0044417170709685275 0.020260161384940148 -0.012730593437498267 0.0072792074829339986 0.00038500262890011076
leaf_weight=22 28 38 20 22 25 20
leaf_count=22 28 38 20 22 25 20
internal_value=0 -0.00341535 0.00407617 -0.0092088 -0.00208708 0.0108153
internal_weight=0 133 58 75 47 42
internal_count=175 133 58 75 47 42
is_linear=0
shrinkage=0.1


Tree=13
num_leaves=7
num_cat=0
split_feature=80 2 47 57 47 33
split_gain=0.574363 0.91992 0.582389 0.725452 0.577778 0.30187
threshold=0.025292429000000002 16.846597500000005 0.20127694000000004 -0.5993871999999999 0.18461587500000001 0.81697610000000009
decision_type=2 2 2 2 2 2
left_child=-1 -2 3 4 -3 -4
right_child=1 2 5 -5 -6 -7
leaf_value=-0.011257195648633773 -0.015354222026856049 -0.0056145359762012964 0.0074876736477017397 0.028492401801049713 0.016347217718139292 -0.0085979098720209944
leaf_weight=36 23 23 20 20 25 28
leaf_count=36 23 23 20 20 25 28
internal_value=0 0.00291553 0.00653798 0.0124911 0.00582388 -0.00189558
internal_weight=0 139 116 68 48 48
internal_count=175 139 116 68 48 48
is_linear=0
shrinkage=0.1


Tree=14
num_leaves=7
num_cat=0
split_feature=77 63 61 30 67 72
split_gain=0.510664 0.69128 0.688587 0.365453 0.315288 0.293883
threshold=29.170052500000001 1.2792578500000003 0.53070458000000009 0.033973697500000004 1.4952917500000003 17.437938500000005
decision_type=2 2 2 2 2 2
left_child=1 3 4 -1 -3 -5
right_child=-2 2 -4 5 -6 -7
leaf_value=0.0034990598633885387 0.013549752176428835 0.0050096020912346641 -0.0078758292198181142 -0.020723078275720279 0.022177183495368808 -0.0066587222381853141
leaf_weight=20 24 23 25 24 20 39
leaf_count=20 24 23 25 24 20 39
internal_value=0 -0.0021536 0.0053216 -0.00827787 0.0129945 -0.0120166
internal_weight=0 151 68 83 43 63
internal_count=175 151 68 83 43 63
is_linear=0
shrinkage=0.1


Tree=15
num_leaves=7
num_cat=0
split_feature=80 2 56 32 67 74
split_gain=0.443815 0.695334 0.465732 0.539092 0.529277 0.228629
threshold=0.025292429000000002 16.846597500000005 -131.61757499999996 1.4792395500000002 1.4952917500000003 -13.370408249999999
decision_type=2 2 2 2 2 2
left_child=-1 -2 3 -3 5 -4
right_child=1 2 4 -5 -6 -7
leaf_value=-0.0098955060355365287 -0.013320931047201157 0.02337570893764496 0.00053757492452859883 0.0026085880249738696 0.011304564694336688 -0.014582898672670125
leaf_weight=36 23 25 20 25 26 20
leaf_count=36 23 25 20 25 26 20
internal_value=0 0.00256286 0.00571224 0.0129921 0.000197155 -0.00702266
internal_weight=0 139 116 50 66 40
internal_count=175 139 116 50 66 40
is_linear=0
shrinkage=0.1


Tree=16
num_leaves=7
num_cat=0
split_feature=69 6 71 36 52 23
split_gain=0.39723 0.379464 0.530226 0.34141 0.291288 0.236601
threshold=0.41412948000000011 397.31980000000004 -1.3899305499999997 5.2943072000000013 2626.9538500000003 0.86854227500000014
decision_type=2 2 2 2 2 2
left_child=3 4 -3 -1 -2 -6
right_child=1 2 -4 -5 5 -7
leaf_value=0.017074594240296972 0.00093763289174863271 -0.0063288784120231869 0.016421973935904957 -0.00097786067984998218 -0.017443620882652427 -0.0045402376105388009
leaf_weight=22 35 20 21 20 27 30
leaf_count=22 35 20 21 20 27 30
internal_value=0 -0.00267732 0.005324 0.00847819 -0.00624313 -0.0106524
internal_weight=0 133 41 42 92 57
internal_count=175 133 41 42 92 57
is_linear=0
shrinkage=0.1


Tree=17
num_leaves=7
num_cat=0
split_feature=86 2 57 1 8 46
split_gain=0.37628 0.47776 0.536736 0.392189 0.439378 0.491682
threshold=0.85205727000000009 16.846597500000005 -0.57352006999999994 0.27829326000000004 198.602675 1568.7931500000002
decision_type=2 2 2 2 2 2
left_child=1 -1 3 4 5 -3
right_child=-2 2 -4 -5 -6 -7
leaf_value=-0.011487254926136562 -0.00895519803303319 0.010734448836107429 0.018968460801988843 -0.010069632614878091 0.017369797683897473 -0.0087711450976452662
leaf_weight=21 37 24 22 22 21 28
leaf_count=21 37 24 22 22 21 28
internal_value=0 0.00240103 0.0048938 0.00163441 0.00516165 0.000231437
internal_weight=0 138 117 95 73 52
internal_count=175 138 117 95 73 52
is_linear=0
shrinkage=0.1


Tree=18
num_leaves=6
num_cat=0
split_feature=80 2 42 67 79
split_gain=0.306124 0.45405 0.341916 0.630098 0.411342
threshold=0.025292429000000002 16.846597500000005 1152.4464000000003 1.3710657000000002 -0.0012973873499999998
decision_type=2 2 2 2 2
left_child=-1 -2 4 -4 -3
right_child=1 2 3 -5 -6
leaf_value=-0.0082183693742586515 -0.010706909049464308 -0.010811395128257573 -0.00015075699581454198 0.02052066698590101 0.0063944563664721718
leaf_weight=36 23 24 30 29 33
leaf_count=36 23 24 30 29 33
internal_value=0 0.0021285 0.00467345 0.0100098 -0.000850113
internal_weight=0 139 116 59 57
internal_count=175 139 116 59 57
is_linear=0
shrinkage=0.1


Tree=19
num_leaves=7
num_cat=0
split_feature=69 79 34 63 68 11
split_gain=0.299688 0.288747 0.593463 0.493484 0.277623 0.194954
threshold=0.41412948000000011 -0.0012973873499999998 2.2360213000000004 1.3310396500000001 28.835780000000003 1.4769395500000002
decision_type=2 2 2 2 2 2
left_child=4 3 5 -2 -1 -3
right_child=1 2 -4 -5 -6 -7
leaf_value=0.015494280947106226 -0.015385976466624178 0.00051413154737515879 0.012094592346693391 0.0031217583753168584 -0.0007661783690786078 -0.013127437559887767
leaf_weight=21 34 22 32 25 21 20
leaf_count=21 34 22 32 25 21 20
internal_value=0 -0.00232549 0.00183499 -0.00754372 0.00736405 -0.00598185
internal_weight=0 133 74 59 42 42
internal_count=175 133 74 59 42 42
is_linear=0
shrinkage=0.1


Tree=20
num_leaves=6
num_cat=0
split_feature=68 6 53 81 6
split_gain=0.270717 0.407686 0.273754 0.424427 0.291326
threshold=18.389842000000005 392.64670000000007 0.10613135300000001 0.68108510000000011 331.30305500000003
decision_type=2 2 2 2 2
left_child=-1 2 -2 -4 -5
right_child=1 -3 3 4 -6
leaf_value=-0.0081587930633263157 -0.0098686068820265632 0.012249081728708311 -0.010140753387134861 0.012101486564746924 -0.0014518608194615309
leaf_weight=33 26 30 22 35 29
leaf_count=33 26 30 22 35 29
internal_value=0 0.00189606 -0.000877074 0.0018413 0.00596013
internal_weight=0 142 112 86 64
internal_count=175 142 112 86 64
is_linear=0
shrinkage=0.1


Tree=21
num_leaves=7
num_cat=0
split_feature=42 41 7 31 35 10
split_gain=0.234116 0.411864 0.380908 0.310366 0.324102 0.288136
threshold=1141.2006000000003 0.45418016500000008 504.70904000000002 2.0910069500000006 2.0314711000000005 0.27430099000000002
decision_type=2 2 2 2 2 2
left_child=3 2 5 4 -1 -2
right_child=1 -3 -4 -5 -6 -7
leaf_value=0.0082936870710303388 0.00050431860853796418 0.012267847834719403 0.0080255103745946171 -0.014606378897137584 -0.0076775439902795131 -0.015907396525144578
leaf_weight=24 23 33 27 21 27 20
leaf_count=24 23 33 27 21 27 20
internal_value=0 0.00305805 -0.00128371 -0.00437471 -0.000161671 -0.00712904
internal_weight=0 103 70 72 51 43
internal_count=175 103 70 72 51 43
is_linear=0
shrinkage=0.1


Tree=22
num_leaves=7
num_cat=0
split_feature=86 82 49 61 6 22
split_gain=0.22859 0.348322 0.324355 0.371825 0.270226 0.258122
threshold=0.85205727000000009 1.8853240000000002 0.37409275000000003 0.55365927000000015 397.31980000000004 16.222554500000005
decision_type=2 2 2 2 2 2
left_child=1 -1 -3 4 5 -4
right_child=-2 2 3 -5 -6 -7
leaf_value=0.011403820502261321 -0.0069798843708594105 -0.011930929567842257 -0.0064008296068225586 -0.0083792377132922407 0.015291934283838297 0.0094729192554950728
leaf_weight=30 37 21 21 25 21 20
leaf_count=30 37 21 21 25 21 20
internal_value=0 0.00187142 -0.000776471 0.00191598 0.00606728 0.00134246
internal_weight=0 138 108 87 62 41
internal_count=175 138 108 87 62 41
is_linear=0
shrinkage=0.1


Tree=23
num_leaves=7
num_cat=0
split_feature=68 6 41 52 66 47
split_gain=0.209528 0.264717 0.219041 0.355492 0.282044 0.0932161
threshold=18.389842000000005 392.64670000000007 0.45418016500000008 2624.3471500000001 0.20114221500000004 0.19074495500000002
decision_type=2 2 2 2 2 2
left_child=-1 2 4 -4 -2 -6
right_child=1 -3 3 -5 5 -7
leaf_value=-0.0071777585893869405 0.0035737248603254558 0.010010554762557149 0.014777627326548099 -0.0032741829093235232 -0.0046847525704652076 -0.014339600196108221
leaf_weight=33 28 30 20 24 20 20
leaf_count=33 28 30 20 24 20 20
internal_value=0 0.00166807 -0.000566523 0.00493119 -0.00412386 -0.00951218
internal_weight=0 142 112 44 68 40
internal_count=175 142 112 44 68 40
is_linear=0
shrinkage=0.1


Tree=24
num_leaves=7
num_cat=0
split_feature=80 51 36 27 42 55
split_gain=0.195798 0.321375 0.2424 0.322313 0.22034 0.186067
threshold=0.025292429000000002 -0.5504805399999998 4.6514057500000012 0.73246097500000007 1141.2006000000003 0.57998626500000017
decision_type=2 2 2 2 2 2
left_child=-1 2 4 -4 -2 -5
right_child=1 -3 3 5 -6 -7
leaf_value=-0.0065726695168349478 -0.0010171089690692466 0.013100316827850685 -0.013298541260883213 0.0076819301139385929 0.012089365791104249 -0.0057953405566513539
leaf_weight=36 29 21 25 21 23 20
leaf_count=36 29 21 25 21 23 20
internal_value=0 0.00170227 -0.000326191 -0.00434924 0.00477999 0.00110765
internal_weight=0 139 118 66 52 41
internal_count=175 139 118 66 52 41
is_linear=0
shrinkage=0.1


Tree=25
num_leaves=6
num_cat=0
split_feature=37 71 49 25 25
split_gain=0.170064 0.271227 0.334303 0.29697 0.239422
threshold=2.3669884500000005 1.3406580000000001 0.41251307000000009 0.66404142500000007 2.9895226000000004
decision_type=2 2 2 2 2
left_child=-1 3 -3 -2 -5
right_child=1 2 -4 4 -6
leaf_value=-0.0084418479482077854 0.0078859811136499057 -0.00088912402531383819 0.012846830016111628 -0.011614433367337501 0.00079177582104291246
leaf_weight=21 20 37 34 35 28
leaf_count=21 20 37 34 35 28
internal_value=0 0.00115116 0.00568866 -0.00273031 -0.00610056
internal_weight=0 154 71 83 63
internal_count=175 154 71 83 63
is_linear=0
shrinkage=0.1


Tree=26
num_leaves=7
num_cat=0
split_feature=69 79 71 26 36 24
split_gain=0.170862 0.2615 0.36645 0.273421 0.175797 0.172055
threshold=0.41412948000000011 -0.0012973873499999998 1.4539275500000002 14.406477750000002 5.2943072000000013 4.5009002000000011
decision_type=2 2 2 2 2 2
left_child=4 3 5 -2 -1 -3
right_child=1 2 -4 -5 -6 -7
leaf_value=0.011728962028229779 -0.001280526452076932 0.0023894304322311655 0.013382836253870101 -0.01523865422476893 -0.0012250409834086897 -0.0092595081465939692
leaf_weight=22 36 32 21 23 20 21
leaf_count=22 36 32 21 23 20 21
internal_value=0 -0.00175591 0.0022034 -0.00672183 0.00556039 -0.00222619
internal_weight=0 133 74 59 42 53
internal_count=175 133 74 59 42 53
is_linear=0
shrinkage=0.1


end of trees

feature_importances:
F0semitoneFrom27.5Hz_sma3nz_meanRisingSlope=8
slopeV0-500_sma3nz_stddevNorm=8
mfcc1V_sma3nz_stddevNorm=7
slopeUV0-500_sma3nz_amean=7
F0semitoneFrom27.5Hz_sma3nz_percentile20.0=6
mfcc1_sma3_amean=6
F2bandwidth_sma3nz_stddevNorm=6
spectralFluxV_sma3nz_stddevNorm=6
mfcc1_sma3_stddevNorm=5
F1frequency_sma3nz_amean=5
F2frequency_sma3nz_stddevNorm=5
loudness_sma3_percentile20.0=4
F1bandwidth_sma3nz_amean=4
hammarbergIndexV_sma3nz_stddevNorm=4
mfcc2V_sma3nz_stddevNorm=4
spectralFluxUV_sma3nz_amean=4
F0semitoneFrom27.5Hz_sma3nz_percentile50.0=3
jitterLocal_sma3nz_amean=3
logRelF0-H1-H2_sma3nz_amean=3
logRelF0-H1-H2_sma3nz_stddevNorm=3
mfcc1V_sma3nz_amean=3
mfcc4V_sma3nz_amean=3
hammarbergIndexUV_sma3nz_amean=3
slopeUV500-1500_sma3nz_amean=3
loudness_sma3_percentile80.0=2
mfcc2_sma3_stddevNorm=2
F1frequency_sma3nz_stddevNorm=2
F2frequency_sma3nz_amean=2
F3frequency_sma3nz_amean=2
F3bandwidth_sma3nz_amean=2
F3bandwidth_sma3nz_stddevNorm=2
F3amplitudeLogRelF0_sma3nz_stddevNorm=2
slopeV0-500_sma3nz_amean=2
VoicedSegmentsPerSec=2
StddevUnvoicedSegmentLength=2
F0semitoneFrom27.5Hz_sma3nz_stddevNorm=1
F0semitoneFrom27.5Hz_sma3nz_stddevRisingSlope=1
F0semitoneFrom27.5Hz_sma3nz_meanFallingSlope=1
loudness_sma3_amean=1
loudness_sma3_stddevNorm=1
mfcc2_sma3_amean=1
mfcc3_sma3_amean=1
mfcc3_sma3_stddevNorm=1
mfcc4_sma3_amean=1
jitterLocal_sma3nz_stddevNorm=1
shimmerLocaldB_sma3nz_amean=1
shimmerLocaldB_sma3nz_stddevNorm=1
HNRdBACF_sma3nz_amean=1
HNRdBACF_sma3nz_stddevNorm=1
logRelF0-H1-A3_sma3nz_amean=1
F2amplitudeLogRelF0_sma3nz_stddevNorm=1
F3frequency_sma3nz_stddevNorm=1
F3amplitudeLogRelF0_sma3nz_amean=1
slopeV500-1500_sma3nz_amean=1
spectralFluxV_sma3nz_amean=1
mfcc3V_sma3nz_amean=1
loudnessPeaksPerSec=1

parameters:
[boosting: gbdt]
[objective: regression]
[metric: l2]
[tree_learner: serial]
[device_type: cpu]
[data_sample_strategy: bagging]
[data: ]
[valid: ]
[num_iterations: 1000]
[learning_rate: 0.1]
[num_leaves: 31]
[num_threads: 0]
[seed: 0]
[deterministic: 0]
[force_col_wise: 0]
[force_row_wise: 0]
[histogram_pool_size: -1]
[max_depth: -1]
[min_data_in_leaf: 20]
[min_sum_hessian_in_leaf: 0.001]
[bagging_fraction: 1]
[pos_bagging_fraction: 1]
[neg_bagging_fraction: 1]
[bagging_freq: 0]
[bagging_seed: 3]
[feature_fraction: 1]
[feature_fraction_bynode: 1]
[feature_fraction_seed: 2]
[extra_trees: 0]
[extra_seed: 6]
[early_stopping_round: 0]
[early_stopping_min_delta: 0]
[first_metric_only: 0]
[max_delta_step: 0]
[lambda_l1: 0]
[lambda_l2: 0]
[linear_lambda: 0]
[min_gain_to_split: 0]
[drop_rate: 0.1]
[max_drop: 50]
[skip_drop: 0.5]
[xgboost_dart_mode: 0]
[uniform_drop: 0]
[drop_seed: 4]
[top_rate: 0.2]
[other_rate: 0.1]
[min_data_per_group: 100]
[max_cat_threshold: 32]
[cat_l2: 10]
[cat_smooth: 10]
[max_cat_to_onehot: 4]
[top_k: 20]
[monotone_constraints: ]
[monotone_constraints_method: basic]
[monotone_penalty: 0]
[feature_contri: ]
[forcedsplits_filename: ]
[refit_decay_rate: 0.9]
[cegb_tradeoff: 1]
[cegb_penalty_split: 0]
[cegb_penalty_feature_lazy: ]
[cegb_penalty_feature_coupled: ]
[path_smooth: 0]
[interaction_constraints: ]
[verbosity: -1]
[saved_feature_importance_type: 0]
[use_quantized_grad: 0]
[num_grad_quant_bins: 4]
[quant_train_renew_leaf: 0]
[stochastic_rounding: 1]
[linear_tree: 0]
[max_bin: 255]
[max_bin_by_feature: ]
[min_data_in_bin: 3]
[bin_construct_sample_cnt: 200000]
[data_random_seed: 1]
[is_enable_sparse: 1]
[enable_bundle: 1]
[use_missing: 1]
[zero_as_missing: 0]
[feature_pre_filter: 1]
[pre_partition: 0]
[two_round: 0]
[header: 0]
[label_column: ]
[weight_column: ]
[group_column: ]
[ignore_column: ]
[categorical_feature: ]
[forcedbins_filename: ]
[precise_float_parser: 0]
[parser_config_file: ]
[objective_seed: 5]
[num_class: 1]
[is_unbalance: 0]
[scale_pos_weight: 1]
[sigmoid: 1]
[boost_from_average: 1]
[reg_sqrt: 0]
[alpha: 0.9]
[fair_c: 1]
[poisson_max_delta_step: 0.7]
[tweedie_variance_power: 1.5]
[lambdarank_truncation_level: 30]
[lambdarank_norm: 1]
[label_gain: ]
[lambdarank_position_bias_regularization: 0]
[eval_at: ]
[multi_error_top_k: 1]
[auc_mu_weights: ]
[num_machines: 1]
[local_listen_port: 12400]
[time_out: 120]
[machine_list_filename: ]
[machines: ]
[gpu_platform_id: -1]
[gpu_device_id: -1]
[gpu_use_dp: 0]
[num_gpu: 1]

end of parameters

pandas_categorical:[]
