tree
version=v4
num_class=1
num_tree_per_iteration=1
label_index=0
max_feature_idx=89
objective=regression
feature_names=F0semitoneFrom27.5Hz_sma3nz_amean F0semitoneFrom27.5Hz_sma3nz_stddevNorm F0semitoneFrom27.5Hz_sma3nz_percentile20.0 F0semitoneFrom27.5Hz_sma3nz_percentile50.0 F0semitoneFrom27.5Hz_sma3nz_percentile80.0 F0semitoneFrom27.5Hz_sma3nz_pctlrange0-2 F0semitoneFrom27.5Hz_sma3nz_meanRisingSlope F0semitoneFrom27.5Hz_sma3nz_stddevRisingSlope F0semitoneFrom27.5Hz_sma3nz_meanFallingSlope F0semitoneFrom27.5Hz_sma3nz_stddevFallingSlope loudness_sma3_amean loudness_sma3_stddevNorm loudness_sma3_percentile20.0 loudness_sma3_percentile50.0 loudness_sma3_percentile80.0 loudness_sma3_pctlrange0-2 loudness_sma3_meanRisingSlope loudness_sma3_stddevRisingSlope loudness_sma3_meanFallingSlope loudness_sma3_stddevFallingSlope spectralFlux_sma3_amean spectralFlux_sma3_stddevNorm mfcc1_sma3_amean mfcc1_sma3_stddevNorm mfcc2_sma3_amean mfcc2_sma3_stddevNorm mfcc3_sma3_amean mfcc3_sma3_stddevNorm mfcc4_sma3_amean mfcc4_sma3_stddevNorm jitterLocal_sma3nz_amean jitterLocal_sma3nz_stddevNorm shimmerLocaldB_sma3nz_amean shimmerLocaldB_sma3nz_stddevNorm HNRdBACF_sma3nz_amean HNRdBACF_sma3nz_stddevNorm logRelF0-H1-H2_sma3nz_amean logRelF0-H1-H2_sma3nz_stddevNorm logRelF0-H1-A3_sma3nz_amean logRelF0-H1-A3_sma3nz_stddevNorm F1frequency_sma3nz_amean F1frequency_sma3nz_stddevNorm F1bandwidth_sma3nz_amean F1bandwidth_sma3nz_stddevNorm F1amplitudeLogRelF0_sma3nz_amean F1amplitudeLogRelF0_sma3nz_stddevNorm F2frequency_sma3nz_amean F2frequency_sma3nz_stddevNorm F2bandwidth_sma3nz_amean F2bandwidth_sma3nz_stddevNorm F2amplitudeLogRelF0_sma3nz_amean F2amplitudeLogRelF0_sma3nz_stddevNorm F3frequency_sma3nz_amean F3frequency_sma3nz_stddevNorm F3bandwidth_sma3nz_amean F3bandwidth_sma3nz_stddevNorm F3amplitudeLogRelF0_sma3nz_amean F3amplitudeLogRelF0_sma3nz_stddevNorm alphaRatioV_sma3nz_amean alphaRatioV_sma3nz_stddevNorm hammarbergIndexV_sma3nz_amean hammarbergIndexV_sma3nz_stddevNorm slopeV0-500_sma3nz_amean slopeV0-500_sma3nz_stddevNorm slopeV500-1500_sma3nz_amean slopeV500-1500_sma3nz_stddevNorm spectralFluxV_sma3nz_amean spectralFluxV_sma3nz_stddevNorm mfcc1V_sma3nz_amean mfcc1V_sma3nz_stddevNorm mfcc2V_sma3nz_amean mfcc2V_sma3nz_stddevNorm mfcc3V_sma3nz_amean mfcc3V_sma3nz_stddevNorm mfcc4V_sma3nz_amean mfcc4V_sma3nz_stddevNorm alphaRatioUV_sma3nz_amean hammarbergIndexUV_sma3nz_amean slopeUV0-500_sma3nz_amean slopeUV500-1500_sma3nz_amean spectralFluxUV_sma3nz_amean loudnessPeaksPerSec VoicedSegmentsPerSec MeanVoicedSegmentLengthSec StddevVoicedSegmentLengthSec MeanUnvoicedSegmentLength StddevUnvoicedSegmentLength equivalentSoundLevel_dBp gender_Female gender_Male
feature_infos=[19.043474:41.658969999999997] [0.14785490000000001:0.41510358000000003] [13.073807:38.603560000000002] [17.916262:41.486989999999999] [22.503035000000001:47.843257999999999] [5.0956535000000001:21.216208000000002] [196.80121:565.96159999999998] [250.93799999999999:809.25990000000002] [75.670280000000005:376.55774000000002] [131.32778999999999:704.61584000000005] [0.044029545000000003:1.6936331] [1.0161495:2.4298038000000002] [0.008859268:0.21948205000000001] [0.015273363:1.0089788] [0.05391804:2.9344920000000001] [0.042536438000000003:2.8359809999999999] [1.2800742000000001:65.690920000000006] [1.0174985999999999:54.034554] [1.1143409:55.774405999999999] [0.97689219999999999:50.199269999999999] [0.0095376200000000001:1.7056311] [1.0452950999999999:3.5321345000000002] [7.0800257000000002:26.818565] [0.51737169999999999:1.6494181000000001] [-14.895944:16.312622000000001] [-54.175255:132.39812000000001] [3.8596113000000001:27.098986] [0.43884765999999997:3.9853032000000002] [-20.491268000000002:12.52453] [-56.291539999999998:191.94896] [0.022285625:0.097881629999999997] [1.3544058999999999:2.4857689999999999] [0.89740310000000001:2.5989232000000002] [0.68644749999999999:1.0727774000000001] [-2.4393349:9.3170110000000008] [-47.951509999999999:40.057740000000003] [-1.4260329:9.7938810000000007] [-37.366894000000002:68.812545999999998] [-0.78863720000000004:30.938616] [-40.041400000000003:24.862682] [468.37950000000001:926.22760000000005] [0.26153569999999998:0.53999249999999999] [807.42895999999996:1359.3389999999999] [0.16848552:0.40244859999999999] [-194.2431:-66.960430000000002] [-1.2711842:-0.17088328] [1453.8792000000001:2023.3087] [0.13821952000000001:0.25035685000000002] [588.88459999999998:1128.7885000000001] [0.29107946000000001:0.60250119999999996] [-193.82623000000001:-66.029780000000002] [-1.2020512000000001:-0.17403536999999999] [2454.6361999999999:3019.2622000000001] [0.082018696000000002:0.14954844] [543.21159999999998:996.42190000000005] [0.31354251999999999:0.75960404000000004] [-193.82434000000001:-68.115654000000006] [-1.1452526999999999:-0.17260294000000001] [-23.718513000000002:-0.10175747] [-87.439989999999995:-0.349555] [6.2331877000000002:34.599589999999999] [0.27319014000000003:1.6190263] [-0.071589134999999998:0.069312534999999995] [-30.051017999999999:35.218623999999998] [-0.027826179999999999:-0.0043927793999999996] [-3.2824764000000002:-0.56470830000000005] [0.035405535000000002:2.7090743000000002] [0.65634130000000002:2.3849075000000002] [7.2157964999999997:34.175735000000003] [0.30611803999999998:1.6404468000000001] [-24.357498:18.252865] [-109.36948:27.403735999999999] [-7.3833200000000003:30.123055999999998] [-22.285696000000002:11.420114999999999] [-42.969009999999997:4.0733867000000004] [-7065.6255000000001:114.406586] [-24.49286:-6.9370832] [16.220215:35.521217] [-0.099387539999999996:-0.0009139711] [-0.0081469980000000008:0.0075702469999999996] [0.0082764399999999995:0.95292390000000005] [0.18114830000000001:2.7617517] [0.50509375000000001:3.1914202999999999] [0.059945576:0.27528414000000001] [0.052917222999999999:0.28733477000000002] [0.089906100000000003:1.6800752000000001] [0.108217455:2.8065850000000001] [-61.808759999999999:-15.248775999999999] [0:1] [0:1]
tree_sizes=627 733 643 723 646 648 732 647 731 641 744 732 731 745 649 824 644 734 657 651 738 659 657 732 729 739 735 652 643 741 653 740 653 741 658 654 737

Tree=0
num_leaves=6
num_cat=0
split_feature=34 53 81 54 35
split_gain=3.04222 1.48236 1.60223 1.53378 0.712835
threshold=1.5271830500000003 0.11138941000000001 1.3923848000000003 786.33050000000014 3.9276102500000003
decision_type=2 2 2 2 2
left_child=4 3 -3 -2 -1
right_child=1 2 -4 -5 -6
leaf_value=0.41836453917284905 0.4516978726260768 0.4272381023977484 0.45983459371261132 0.48300280838265641 0.44290476909173387
leaf_weight=29 29 25 38 34 20
leaf_count=29 29 25 38 34 20
internal_value=0.449524 0.457746 0.446899 0.468593 0.428381
internal_weight=0 126 63 63 49
internal_count=175 126 63 63 49
is_linear=0
shrinkage=1


Tree=1
num_leaves=7
num_cat=0
split_feature=23 75 80 75 3 58
split_gain=2.58285 2.74517 1.85813 0.997391 0.829251 1.05706
threshold=0.62595095000000012 -3.2967063999999993 0.030479646000000003 -1.2248018999999999 25.596633000000001 -9.8017474999999994
decision_type=2 2 2 2 2 2
left_child=-1 -2 3 -3 -4 -6
right_child=1 2 4 -5 5 -7
leaf_value=0.032898886927536557 -0.033442592703633839 -0.031959711387753491 -0.0029277735156938434 -0.00037821106612682346 0.030445272218564464 0.0026772209658072546
leaf_weight=21 27 20 32 20 29 26
leaf_count=21 27 20 32 20 29 26
internal_value=0 -0.00448621 0.00166987 -0.016169 0.00987163 0.0173186
internal_weight=0 154 127 40 87 55
internal_count=175 154 127 40 87 55
is_linear=0
shrinkage=0.1


Tree=2
num_leaves=6
num_cat=0
split_feature=34 53 81 54 57
split_gain=2.10761 0.982736 1.19046 1.13333 0.521922
threshold=1.5271830500000003 0.11138941000000001 1.3923848000000003 786.33050000000014 -0.5334159799999999
decision_type=2 2 2 2 2
left_child=4 3 -3 -2 -1
right_child=1 2 -4 -5 -6
leaf_value=-0.029031387919729409 0.001152404500492688 -0.018935432657599449 0.009161942040449695 0.028062175696387012 -0.0082818960977925193
leaf_weight=22 29 25 38 34 27
leaf_count=22 29 25 38 34 27
internal_value=0 0.00684366 -0.00198781 0.0156751 -0.017598
internal_weight=0 126 63 63 49
internal_count=175 126 63 63 49
is_linear=0
shrinkage=0.1


Tree=3
num_leaves=7
num_cat=0
split_feature=23 75 18 7 84 54
split_gain=1.92114 2.01236 1.48328 1.19861 0.76675 0.494541
threshold=0.62595095000000012 -3.2967063999999993 5.011168800000001 452.24950000000007 0.17729355500000002 736.74685000000011
decision_type=2 2 2 2 2 2
left_child=-1 -2 -3 -4 -5 -6
right_child=1 2 3 4 5 -7
leaf_value=0.028373424850759055 -0.028661146180497279 -0.015780545046759974 -0.011534690306238507 0.028799955576658251 -0.0047235599160194396 0.016777340095976128
leaf_weight=21 27 36 23 25 20 23
leaf_count=21 27 36 23 25 20 23
internal_value=0 -0.0038691 0.00140165 0.008199 0.0148736 0.00677692
internal_weight=0 154 127 91 68 43
internal_count=175 154 127 91 68 43
is_linear=0
shrinkage=0.1


Tree=4
num_leaves=6
num_cat=0
split_feature=23 75 66 81 54
split_gain=1.55613 1.63001 1.25216 1.02347 1.01096
threshold=0.62595095000000012 -3.2967063999999993 0.61117325000000011 1.5615161500000003 764.38502500000016
decision_type=2 2 2 2 2
left_child=-1 -2 3 4 -3
right_child=1 2 -4 -5 -6
leaf_value=0.025536083110741209 -0.025795030783585929 -0.023099020368286542 0.018370107153896243 0.010776774932940802 0.0019175714378555618
leaf_weight=21 27 35 32 30 30
leaf_count=21 27 35 32 30 30
internal_value=0 -0.00348219 0.00126148 -0.00450142 -0.0115529
internal_weight=0 154 127 95 65
internal_count=175 154 127 95 65
is_linear=0
shrinkage=0.1


Tree=5
num_leaves=6
num_cat=0
split_feature=7 84 69 53 26
split_gain=1.29857 1.41113 0.748335 0.834919 0.693849
threshold=412.02406500000001 0.14700263000000002 0.42670542000000006 0.11187344700000001 17.474376500000002
decision_type=2 2 2 2 2
left_child=-1 -2 -3 -4 -5
right_child=1 2 3 4 -6
leaf_value=-0.017869054740577036 -0.015108705824241044 0.022236327349673957 0.014616802067328722 -0.018516794822755315 0.0075087451934814451
leaf_weight=33 30 32 39 21 20
leaf_count=33 30 32 39 21 20
internal_value=0 0.00415267 0.00931196 0.00414222 -0.00582141
internal_weight=0 142 112 80 41
internal_count=175 142 112 80 41
is_linear=0
shrinkage=0.1


Tree=6
num_leaves=7
num_cat=0
split_feature=23 75 80 75 71 62
split_gain=1.13644 1.24813 0.951259 0.606 0.550579 0.837534
threshold=0.62595095000000012 -3.2967063999999993 0.030479646000000003 -1.2248018999999999 1.9314244000000003 0.0090789095000000011
decision_type=2 2 2 2 2 2
left_child=-1 -2 3 -3 5 -4
right_child=1 2 4 -5 -6 -7
leaf_value=0.021822516797553926 -0.022500741854310037 -0.023897075476124883 -0.01244189315289259 0.00071999024599790585 0.018009015992283824 0.011986429337412119
leaf_weight=21 27 20 25 20 30 32
leaf_count=21 27 20 25 20 30 32
internal_value=0 -0.0029758 0.00117517 -0.0115885 0.00704355 0.00127225
internal_weight=0 154 127 40 87 57
internal_count=175 154 127 40 87 57
is_linear=0
shrinkage=0.1


Tree=7
num_leaves=6
num_cat=0
split_feature=34 18 23 52 57
split_gain=0.970164 0.587221 0.625163 0.453014 0.410444
threshold=1.5271830500000003 5.011168800000001 0.68280899500000014 2682.1433000000006 -0.5334159799999999
decision_type=2 2 2 2 2
left_child=4 -2 -3 -4 -1
right_child=1 2 3 -5 -6
leaf_value=-0.022078721572391012 -0.008745216033779658 0.02181902524828911 -0.004316964459832053 0.011228141031767194 -0.003678141706795604
leaf_weight=22 26 25 37 38 27
leaf_count=22 26 25 37 38 27
internal_value=0 0.00464319 0.00812417 0.00355922 -0.0119396
internal_weight=0 126 100 75 49
internal_count=175 126 100 75 49
is_linear=0
shrinkage=0.1


Tree=8
num_leaves=7
num_cat=0
split_feature=53 7 84 7 53 54
split_gain=0.886253 0.853989 0.786284 0.739174 0.523229 0.547868
threshold=0.12886275500000002 412.02406500000001 0.14700263000000002 496.74180000000007 0.11440433800000001 786.33050000000014
decision_type=2 2 2 2 2 2
left_child=1 -1 -3 -4 5 -5
right_child=-2 2 3 4 -6 -7
leaf_value=-0.0131993910504712 -0.017431532487273218 -0.011180462794644493 0.023256249142189822 6.8837400201870048e-05 -0.0067656779876695237 0.021895586002780045
leaf_weight=27 25 21 30 23 26 23
leaf_count=27 25 21 30 23 26 23
internal_value=0 0.00290526 0.00644042 0.0100683 0.00457325 0.0109822
internal_weight=0 150 123 102 72 46
internal_count=175 150 123 102 72 46
is_linear=0
shrinkage=0.1


Tree=9
num_leaves=6
num_cat=0
split_feature=81 4 73 84 1
split_gain=0.768082 0.932945 0.863433 0.505201 0.412779
threshold=1.5615161500000003 37.052253000000007 0.87785915000000014 0.17960402 0.28296428500000009
decision_type=2 2 2 2 2
left_child=1 3 -2 4 -1
right_child=2 -3 -4 -5 -6
leaf_value=-0.023326937710085222 0.025604834788966746 0.0095823084596883181 0.00021746034255704365 0.0013214885615385496 -0.0064143471885472541
leaf_weight=31 21 33 37 26 27
leaf_count=31 21 33 37 26 27
internal_value=0 -0.00466451 0.00940944 -0.0102615 -0.0154538
internal_weight=0 117 58 84 58
internal_count=175 117 58 84 58
is_linear=0
shrinkage=0.1


Tree=10
num_leaves=7
num_cat=0
split_feature=23 75 78 24 21 80
split_gain=0.713803 0.804872 0.753916 0.523288 0.576683 0.478888
threshold=0.62595095000000012 -3.2967063999999993 -0.071081172999999984 5.6153483500000005 2.1282599000000002 0.032319398500000006
decision_type=2 2 2 2 2 2
left_child=-1 -2 -3 4 -4 -5
right_child=1 2 3 5 -6 -7
leaf_value=0.017295013776137718 -0.018037578325580669 0.016537824774160981 -0.0060176279023289687 -0.021928956102402437 0.014127195412638011 -0.0012509858080496392
leaf_weight=21 27 25 30 21 27 24
leaf_count=21 27 25 30 21 27 24
internal_value=0 -0.00235841 0.000974955 -0.00283947 0.00352466 -0.0109007
internal_weight=0 154 127 102 57 45
internal_count=175 154 127 102 57 45
is_linear=0
shrinkage=0.1


Tree=11
num_leaves=7
num_cat=0
split_feature=53 7 61 19 29 0
split_gain=0.62097 0.561497 0.81738 0.682158 0.421154 0.273264
threshold=0.12886275500000002 416.19344000000007 0.36697051500000005 5.9692766500000003 1.9143299000000003 35.667533000000006
decision_type=2 2 2 2 2 2
left_child=1 -1 -3 -4 5 -5
right_child=-2 2 3 4 -6 -7
leaf_value=-0.009804650767085454 -0.014591233118902891 0.023945672363042833 -0.012505428701639176 -0.0087063897401094444 0.014579549548881396 0.0078243085579015308
leaf_weight=30 25 20 25 20 35 20
leaf_count=30 25 20 25 20 35 20
internal_value=0 0.00243187 0.005491 0.00180007 0.00656857 -0.000441041
internal_weight=0 150 120 100 75 40
internal_count=175 150 120 100 75 40
is_linear=0
shrinkage=0.1


Tree=12
num_leaves=7
num_cat=0
split_feature=81 8 54 65 71 41
split_gain=0.530252 0.715642 0.693978 0.982711 0.356672 0.20101
threshold=1.5615161500000003 184.84433000000004 739.3770300000001 -0.76401874499999989 -1.0023270999999998 0.46632289500000007
decision_type=2 2 2 2 2 2
left_child=2 -2 5 4 -4 -1
right_child=1 -3 3 -5 -6 -7
leaf_value=-0.0071568302846012205 0.018549399450421333 -0.0036797243336747797 0.0032665359368547796 -0.011467922768447195 0.022152288029901684 -0.020144493327560752
leaf_weight=26 30 28 20 29 20 22
leaf_count=26 30 28 20 29 20 22
internal_value=0 0.0078181 -0.00387564 0.00254792 0.0127094 -0.0131095
internal_weight=0 58 117 69 40 48
internal_count=175 58 117 69 40 48
is_linear=0
shrinkage=0.1


Tree=13
num_leaves=7
num_cat=0
split_feature=23 75 78 24 21 80
split_gain=0.486842 0.582965 0.500103 0.341198 0.439011 0.339998
threshold=0.62595095000000012 -3.2967063999999993 -0.073822669999999993 5.6153483500000005 2.1282599000000002 0.032319398500000006
decision_type=2 2 2 2 2 2
left_child=-1 -2 -3 4 -4 -5
right_child=1 2 3 5 -6 -7
leaf_value=0.014283199504106529 -0.015291549237789932 0.014598338737745176 -0.0050778531500448787 -0.017344545945525171 0.012498646724486242 -0.00045333386291391572
leaf_weight=21 27 22 30 22 27 26
leaf_count=21 27 22 30 22 27 26
internal_value=0 -0.00194771 0.00088917 -0.00198323 0.00324786 -0.00819514
internal_weight=0 154 127 105 57 48
internal_count=175 154 127 105 57 48
is_linear=0
shrinkage=0.1


Tree=14
num_leaves=6
num_cat=0
split_feature=53 84 2 55 54
split_gain=0.4345 0.42089 0.339173 0.468441 0.364598
threshold=0.12886275500000002 0.14700263000000002 20.051728500000003 0.48763698500000008 773.85802000000012
decision_type=2 2 2 2 2
left_child=1 -1 -3 -4 -5
right_child=-2 2 3 4 -6
leaf_value=-0.0087859009043313573 -0.012205391332507134 -0.0066036600111560387 0.016425076669880325 -0.0052790624964417837 0.009823800118700151
leaf_weight=29 25 22 35 33 31
leaf_count=29 25 22 35 33 31
internal_value=0 0.00203423 0.00462749 0.0071233 0.00203639
internal_weight=0 150 121 99 64
internal_count=175 150 121 99 64
is_linear=0
shrinkage=0.1


Tree=15
num_leaves=8
num_cat=0
split_feature=23 30 44 29 46 45 71
split_gain=0.371206 0.467901 0.337295 0.414534 0.316172 0.243748 0.209379
threshold=0.62595095000000012 0.048681175000000007 -135.81486499999997 5.2083659500000001 1659.5475000000004 -0.61123727499999991 -0.90540509999999996
decision_type=2 2 2 2 2 2 2
left_child=-1 2 3 4 -2 -3 -4
right_child=1 5 6 -5 -6 -7 -8
leaf_value=0.012472096252964721 0.0095453689435358955 -0.017965517125346445 0.0021192958214036797 -0.014789621327072384 -0.006604408314028247 -0.0027120304643176497 0.016109430119395259
leaf_weight=21 27 22 23 20 22 20 20
leaf_count=21 27 22 23 20 22 20 20
internal_value=0 -0.00170074 0.00167471 -0.00265746 0.00229445 -0.010702 0.00862634
internal_weight=0 154 112 69 49 42 43
internal_count=175 154 112 69 49 42 43
is_linear=0
shrinkage=0.1


Tree=16
num_leaves=6
num_cat=0
split_feature=74 80 9 11 53
split_gain=0.330303 0.381253 0.579042 0.353638 0.351636
threshold=-6.1684894499999992 0.030479646000000003 288.78843500000005 1.3322935500000004 0.119077578
decision_type=2 2 2 2 2
left_child=1 -1 -3 -4 -2
right_child=4 2 3 -5 -6
leaf_value=-0.0058301206011997751 0.0029209987302734096 0.020429124158214441 -0.0065582774129920992 0.008280083583667875 -0.013723710961639882
leaf_weight=36 22 22 29 36 30
leaf_count=36 22 22 29 36 30
internal_value=0 0.00282479 0.00640613 0.00165989 -0.00668172
internal_weight=0 123 87 65 52
internal_count=175 123 87 65 52
is_linear=0
shrinkage=0.1


Tree=17
num_leaves=7
num_cat=0
split_feature=11 49 9 18 29 41
split_gain=0.296739 0.309236 0.61049 0.447603 0.525873 0.392688
threshold=1.5808016500000002 0.36773304500000004 248.76140500000002 5.011168800000001 3.7143995000000003 0.47246611000000011
decision_type=2 2 2 2 2 2
left_child=1 -1 -3 -4 5 -5
right_child=-2 2 3 4 -6 -7
leaf_value=-0.0094096371904015541 -0.0080914090128822464 0.019964876931626352 -0.012148890919273809 0.0075238268095999955 0.015910909946587011 -0.009869136613000323
leaf_weight=20 36 20 21 25 26 27
leaf_count=20 36 20 21 25 26 27
internal_value=0 0.00209562 0.00402927 0.000809959 0.00429888 -0.00150713
internal_weight=0 139 119 99 78 52
internal_count=175 139 119 99 78 52
is_linear=0
shrinkage=0.1


Tree=18
num_leaves=6
num_cat=0
split_feature=30 38 18 61 74
split_gain=0.255594 0.375659 0.259493 0.36044 0.284935
threshold=0.052393817500000009 20.331414500000005 7.2923056500000003 0.53831430000000002 -13.455799499999998
decision_type=2 2 2 2 2
left_child=1 2 4 -4 -1
right_child=-2 -3 3 -5 -6
leaf_value=0.0013019870501011612 -0.0076433947389679298 0.013020790472626687 0.0096750322299507946 -0.0045251272054332671 -0.014982939081355222
leaf_weight=22 35 25 39 33 21
leaf_count=22 35 25 39 33 21
internal_value=0 0.00191085 -0.000504356 0.00316663 -0.00665112
internal_weight=0 140 115 72 43
internal_count=175 140 115 72 43
is_linear=0
shrinkage=0.1


Tree=19
num_leaves=6
num_cat=0
split_feature=74 52 80 55 54
split_gain=0.250929 0.248865 0.235715 0.437349 0.371736
threshold=-6.1684894499999992 2608.8868000000007 0.030479646000000003 0.48763698500000008 806.13310000000013
decision_type=2 2 2 2 2
left_child=2 -2 -1 -4 -5
right_child=1 -3 3 4 -6
leaf_value=-0.0043432336326481571 0.0013655835613608361 -0.012480655036590717 0.01613817560271575 -0.0056379856755705299 0.010341975717650106
leaf_weight=36 25 27 26 37 24
leaf_count=36 25 27 26 37 24
internal_value=0 -0.00582381 0.0024621 0.0052781 0.000649212
internal_weight=0 52 123 87 61
internal_count=175 52 123 87 61
is_linear=0
shrinkage=0.1


Tree=20
num_leaves=7
num_cat=0
split_feature=11 54 30 78 74 85
split_gain=0.218355 0.30487 0.276809 0.26229 0.193613 0.340585
threshold=1.5406037000000001 739.3770300000001 0.052393817500000009 -0.06757816799999998 -13.455799499999998 0.29601039000000001
decision_type=2 2 2 2 2 2
left_child=2 -2 3 -1 5 -5
right_child=1 -3 -4 4 -6 -7
leaf_value=0.013335357876106478 -0.014803111411276319 0.0016955431783571839 -0.0084346447849557513 -0.0017415144894686011 -0.0039389090008429576 0.015238656156829426
leaf_weight=24 21 24 21 27 37 21
leaf_count=24 21 24 21 27 37 21
internal_value=0 -0.00600383 0.00207825 0.00410367 0.00149707 0.00568731
internal_weight=0 45 130 109 85 48
internal_count=175 45 130 109 85 48
is_linear=0
shrinkage=0.1


Tree=21
num_leaves=6
num_cat=0
split_feature=23 75 78 70 21
split_gain=0.219098 0.262235 0.31053 0.250807 0.172564
threshold=0.62595095000000012 -3.2967063999999993 -0.071081172999999984 1.2152612500000004 2.1282599000000002
decision_type=2 2 2 2 2
left_child=-1 -2 -3 4 -4
right_child=1 2 3 -5 -6
leaf_value=0.0095818792735891684 -0.010256242669290967 0.010584085265290925 -0.003496648760183769 -0.0090222930027679966 0.0065062483034229708
leaf_weight=21 27 25 34 33 35
leaf_count=21 27 25 34 33 35
internal_value=0 -0.00130662 0.000596056 -0.00185199 0.00157728
internal_weight=0 154 127 102 69
internal_count=175 154 127 102 69
is_linear=0
shrinkage=0.1


Tree=22
num_leaves=6
num_cat=0
split_feature=7 68 68 71 79
split_gain=0.183483 0.367331 0.288278 0.688934 0.211308
threshold=412.02406500000001 26.335731500000005 21.705452500000003 -1.0023270999999998 -0.0020923862999999996
decision_type=2 2 2 2 2
left_child=-1 2 3 -2 -4
right_child=1 -3 4 -5 -6
leaf_value=-0.0067168571861023364 -0.0059814572827342682 0.0099750917490669787 0.00030241535278037192 0.016147334656367699 -0.013369692045335585
leaf_weight=33 34 38 20 24 26
leaf_count=33 34 38 20 24 26
internal_value=0 0.00156096 -0.00151343 0.00317528 -0.0074253
internal_weight=0 142 104 58 46
internal_count=175 142 104 58 46
is_linear=0
shrinkage=0.1


Tree=23
num_leaves=7
num_cat=0
split_feature=81 54 42 21 8 73
split_gain=0.16793 0.464151 0.412591 0.324459 0.231405 0.148379
threshold=1.4135789500000002 764.38502500000016 1209.4246500000002 2.0107932000000006 184.84433000000004 0.73189152000000013
decision_type=2 2 2 2 2 2
left_child=1 5 -3 4 -2 -1
right_child=3 2 -4 -5 -6 -7
leaf_value=-0.0038670607132925876 0.0054430419386460871 0.011390334405004979 -0.0064118589396062109 0.013772206245498223 -0.0076854368578642617 -0.015269193708896636
leaf_weight=21 29 30 23 22 25 25
leaf_count=21 29 30 23 22 25 25
internal_value=0 -0.00271415 0.00366485 0.00353554 -0.000634958 -0.0100639
internal_weight=0 99 53 76 54 46
internal_count=175 99 53 76 54 46
is_linear=0
shrinkage=0.1


Tree=24
num_leaves=7
num_cat=0
split_feature=81 73 54 65 71 53
split_gain=0.153254 0.425321 0.298746 0.358359 0.222911 0.210763
threshold=1.5615161500000003 0.87785915000000014 739.3770300000001 -0.76401874499999989 -1.0023270999999998 0.115249315
decision_type=2 2 2 2 2 2
left_child=2 -2 5 4 -4 -1
right_child=1 -3 3 -5 -6 -7
leaf_value=-0.015982465320266783 0.015569793438494562 -0.0022483204566949122 0.00080216967966407538 -0.006332797158894868 0.015732364105060698 -0.002541716613008508
leaf_weight=20 21 37 20 29 20 28
leaf_count=20 21 37 20 29 20 28
internal_value=0 0.00420307 -0.00208357 0.00213101 0.00826727 -0.00814203
internal_weight=0 58 117 69 40 48
internal_count=175 58 117 69 40 48
is_linear=0
shrinkage=0.1


Tree=25
num_leaves=7
num_cat=0
split_feature=23 39 71 37 81 81
split_gain=0.154983 0.203216 0.388029 0.236464 0.156372 0.227297
threshold=0.62595095000000012 1.4668778500000001 -1.1873254499999997 3.0335183000000003 1.4792129000000003 0.79953535000000009
decision_type=2 2 2 2 2 2
left_child=-1 3 -3 -2 5 -5
right_child=1 2 -4 4 -6 -7
leaf_value=0.008058868561472211 0.0044499983754137471 -0.0043314622630449854 0.014914083816111088 -0.001133263444485651 0.0002115766862752261 -0.014178131479660377
leaf_weight=21 29 22 20 22 27 34
leaf_count=21 29 22 20 22 27 34
internal_value=0 -0.00109894 0.00483308 -0.00332344 -0.00603947 -0.00905336
internal_weight=0 154 42 112 83 56
internal_count=175 154 42 112 83 56
is_linear=0
shrinkage=0.1


Tree=26
num_leaves=7
num_cat=0
split_feature=23 39 71 37 7 31
split_gain=0.125536 0.164605 0.314303 0.191536 0.14513 0.122967
threshold=0.62595095000000012 1.4668778500000001 -1.1873254499999997 3.0335183000000003 566.3141250000001 1.9569796500000003
decision_type=2 2 2 2 2 2
left_child=-1 3 -3 -2 5 -5
right_child=1 2 -4 4 -6 -7
leaf_value=0.0072529816423498455 0.004004998932239311 -0.0038983160206540069 0.013422675319015982 -0.0070812406440381899 -0.01218936928426442 0.0019931094105621531
leaf_weight=21 29 22 20 32 23 28
leaf_count=21 29 22 20 32 23 28
internal_value=0 -0.000989043 0.00434978 -0.0029911 -0.00543552 -0.00284654
internal_weight=0 154 42 112 83 60
internal_count=175 154 42 112 83 60
is_linear=0
shrinkage=0.1


Tree=27
num_leaves=6
num_cat=0
split_feature=11 82 66 18 8
split_gain=0.120237 0.161211 0.228534 0.187936 0.132696
threshold=1.5808016500000002 1.7724584500000002 0.61117325000000011 5.011168800000001 172.31768500000001
decision_type=2 2 2 2 2
left_child=1 3 4 -1 -3
right_child=-2 2 -4 -5 -6
leaf_value=0.00013146078722043472 -0.0051505881478078669 0.00093934184004520549 0.0063468455771605176 0.013525254828855396 -0.0080426931312295464
leaf_weight=22 36 29 30 20 38
leaf_count=22 36 29 30 20 38
internal_value=0 0.00133397 -0.00090697 0.00650946 -0.00415495
internal_weight=0 139 97 42 67
internal_count=175 139 97 42 67
is_linear=0
shrinkage=0.1


Tree=28
num_leaves=6
num_cat=0
split_feature=26 73 72 74 26
split_gain=0.117571 0.245641 0.162071 0.305015 0.254996
threshold=11.679787000000003 1.0922803500000002 17.410250500000004 -4.109862849999999 20.365942
decision_type=2 2 2 2 2
left_child=-1 2 -2 4 -4
right_child=1 -3 3 -5 -6
leaf_value=-0.0052783903323442623 -0.0071758479004104944 0.009301443404207627 0.010244874422111222 -0.008620869101617825 -0.0033501738618889991
leaf_weight=34 30 30 37 22 22
leaf_count=34 30 30 37 22 22
internal_value=0 0.0012728 -0.000897099 0.00142836 0.00517553
internal_weight=0 141 111 81 59
internal_count=175 141 111 81 59
is_linear=0
shrinkage=0.1


Tree=29
num_leaves=7
num_cat=0
split_feature=6 18 41 44 65 67
split_gain=0.104742 0.193083 0.255369 0.319482 0.190307 0.159443
threshold=267.96617000000009 5.011168800000001 0.4645493200000001 -139.72084499999997 -0.82552694999999987 1.4432586000000003
decision_type=2 2 2 2 2 2
left_child=-1 -2 3 -3 5 -4
right_child=1 2 4 -5 -6 -7
leaf_value=0.0066251056069242106 -0.0076837058750573884 0.015522085910751708 -0.013901593517512086 0.00022330053676015293 0.0043867671801126563 -0.0014257590219910656
leaf_weight=21 33 21 20 39 20 21
leaf_count=21 33 21 20 39 20 21
internal_value=0 -0.000903424 0.000945744 0.00557788 -0.00361045 -0.00751153
internal_weight=0 154 121 60 61 41
internal_count=175 154 121 60 61 41
is_linear=0
shrinkage=0.1


Tree=30
num_leaves=6
num_cat=0
split_feature=7 38 7 38 61
split_gain=0.108124 0.303218 0.166927 0.211087 0.250949
threshold=416.19344000000007 20.331414500000005 496.74180000000007 16.618590500000003 0.55552537000000013
decision_type=2 2 2 2 2
left_child=-1 2 -2 4 -4
right_child=1 -3 3 -5 -6
leaf_value=-0.0048842469647449134 0.0057363907527178534 0.012336365776580005 0.0077564232320023272 -0.01046447703937212 -0.0051364753434124093
leaf_weight=36 30 21 26 26 36
leaf_count=36 30 21 26 26 36
internal_value=0 0.00126498 -0.000705346 -0.00290139 0.000270224
internal_weight=0 139 118 88 62
internal_count=175 139 118 88 62
is_linear=0
shrinkage=0.1


Tree=31
num_leaves=7
num_cat=0
split_feature=77 26 61 38 30 68
split_gain=0.10072 0.215488 0.129169 0.274526 0.1737 0.140304
threshold=20.481476000000004 11.679787000000003 0.62853140000000007 13.622063000000002 0.052393817500000009 26.335731500000005
decision_type=2 2 2 2 2 2
left_child=-1 -2 3 -3 5 -5
right_child=1 2 -4 4 -6 -7
leaf_value=0.0060175681753510922 -0.0094372663628309976 0.012864153925329448 -0.0054047057767295176 -0.0022515574719623797 -0.0075679307074650471 0.0077592858321232985
leaf_weight=24 25 20 27 28 23 28
leaf_count=24 25 20 27 28 23 28
internal_value=0 -0.000956435 0.00072627 0.00239835 -0.000251215 0.00275386
internal_weight=0 151 126 99 79 56
internal_count=175 151 126 99 79 56
is_linear=0
shrinkage=0.1


Tree=32
num_leaves=6
num_cat=0
split_feature=2 68 26 47 49
split_gain=0.101178 0.179816 0.198571 0.145849 0.143225
threshold=20.843969000000005 26.335731500000005 18.016941000000006 0.19371920500000003 0.38401731000000006
decision_type=2 2 2 2 2
left_child=4 2 3 -2 -1
right_child=1 -3 -4 -5 -6
leaf_value=-0.0095257192040267211 0.001294439371675253 0.0081051901172031655 0.0059559963980753876 -0.0091282310514261243 0.00052322390665476392
leaf_weight=23 25 32 29 29 37
leaf_count=23 25 32 29 29 37
internal_value=0 0.0017368 -0.00071848 -0.00430292 -0.00332887
internal_weight=0 115 83 54 60
internal_count=175 115 83 54 60
is_linear=0
shrinkage=0.1


Tree=33
num_leaves=7
num_cat=0
split_feature=6 23 21 11 74 21
split_gain=0.0929744 0.137474 0.138643 0.161064 0.12131 0.101291
threshold=274.14773500000007 0.68280899500000014 2.0734267500000003 1.5600390000000004 -12.455135499999999 2.3475861500000006
decision_type=2 2 2 2 2 2
left_child=-1 -2 4 5 -3 -4
right_child=1 2 3 -5 -6 -7
leaf_value=0.0057815658161416653 0.0048996938392519953 -0.0019242738283449603 0.0092889496790511273 -0.0061680560254237871 -0.011286751721054316 -0.00065486045408761132
leaf_weight=24 32 31 21 22 25 20
leaf_count=24 32 31 21 22 25 20
internal_value=0 -0.000918924 -0.00248359 0.0007345 -0.00610395 0.00443831
internal_weight=0 151 119 63 56 41
internal_count=175 151 119 63 56 41
is_linear=0
shrinkage=0.1


Tree=34
num_leaves=6
num_cat=0
split_feature=7 61 7 38 61
split_gain=0.0803507 0.170699 0.126517 0.159162 0.172033
threshold=412.02406500000001 0.36697051500000005 496.74180000000007 16.882203500000006 0.53831430000000002
decision_type=2 2 2 2 2
left_child=-1 -2 -3 4 -4
right_child=1 2 3 -5 -6
leaf_value=-0.0044449116554901458 0.0089194048196077347 0.0050023692059180426 0.0062470024425743363 -0.0093714173727979262 -0.0042511549457452244
leaf_weight=33 23 31 27 24 37
leaf_count=33 23 31 27 24 37
internal_value=0 0.00103297 -0.000491296 -0.00242656 0.000177755
internal_weight=0 142 119 88 64
internal_count=175 142 119 88 64
is_linear=0
shrinkage=0.1


Tree=35
num_leaves=6
num_cat=0
split_feature=6 18 41 44 24
split_gain=0.08048 0.119433 0.163251 0.244443 0.121097
threshold=274.14773500000007 5.011168800000001 0.4645493200000001 -139.72084499999997 3.4699785000000003
decision_type=2 2 2 2 2
left_child=-1 -2 3 -3 -4
right_child=1 2 4 -5 -6
leaf_value=0.0053790763660799719 -0.0061730667610060087 0.01301038648400988 -0.0072486836128518922 -0.00043314305152498977 0.0018449101786784554
leaf_weight=24 33 21 32 38 27
leaf_count=24 33 21 32 38 27
internal_value=0 -0.000854952 0.000632317 0.00435184 -0.00308721
internal_weight=0 151 118 59 59
internal_count=175 151 118 59 59
is_linear=0
shrinkage=0.1


Tree=36
num_leaves=7
num_cat=0
split_feature=2 2 2 73 9 67
split_gain=0.0867754 0.125517 0.199799 0.113271 0.0990318 0.0909024
threshold=20.843969000000005 23.318942000000003 29.794116000000002 0.68547495000000003 340.31776000000008 1.2645431000000003
decision_type=2 2 2 2 2 2
left_child=3 4 -3 -1 -2 -4
right_child=1 2 5 -5 -6 -7
leaf_value=0.0028383040279593499 0.00087113367393612865 -0.0083727433200692768 0.0069840129539370539 -0.0062711667720204553 0.010593804264102471 -0.0016320719480669749
leaf_weight=21 20 24 25 39 22 24
leaf_count=21 20 24 25 39 22 24
internal_value=0 0.00160844 -0.000897469 -0.00308285 0.00596396 0.00276389
internal_weight=0 115 73 60 42 49
internal_count=175 115 73 60 42 49
is_linear=0
shrinkage=0.1


end of trees

feature_importances:
mfcc1_sma3_stddevNorm=12
F0semitoneFrom27.5Hz_sma3nz_stddevRisingSlope=11
F3bandwidth_sma3nz_amean=11
F3frequency_sma3nz_stddevNorm=9
mfcc4V_sma3nz_stddevNorm=9
loudnessPeaksPerSec=9
loudness_sma3_meanFallingSlope=7
mfcc2V_sma3nz_stddevNorm=7
spectralFlux_sma3_stddevNorm=6
hammarbergIndexV_sma3nz_stddevNorm=6
mfcc4V_sma3nz_amean=6
spectralFluxUV_sma3nz_amean=6
F0semitoneFrom27.5Hz_sma3nz_percentile20.0=5
loudness_sma3_stddevNorm=5
mfcc3_sma3_amean=5
logRelF0-H1-A3_sma3nz_amean=5
mfcc3V_sma3nz_stddevNorm=5
StddevVoicedSegmentLengthSec=5
jitterLocal_sma3nz_amean=4
F1frequency_sma3nz_stddevNorm=4
mfcc1V_sma3nz_amean=4
slopeUV0-500_sma3nz_amean=4
F0semitoneFrom27.5Hz_sma3nz_meanRisingSlope=3
F0semitoneFrom27.5Hz_sma3nz_meanFallingSlope=3
F0semitoneFrom27.5Hz_sma3nz_stddevFallingSlope=3
mfcc2_sma3_amean=3
mfcc4_sma3_stddevNorm=3
HNRdBACF_sma3nz_amean=3
F1amplitudeLogRelF0_sma3nz_amean=3
slopeV500-1500_sma3nz_stddevNorm=3
logRelF0-H1-H2_sma3nz_stddevNorm=2
logRelF0-H1-A3_sma3nz_stddevNorm=2
F2bandwidth_sma3nz_stddevNorm=2
F3frequency_sma3nz_amean=2
F3bandwidth_sma3nz_stddevNorm=2
F3amplitudeLogRelF0_sma3nz_stddevNorm=2
spectralFluxV_sma3nz_amean=2
spectralFluxV_sma3nz_stddevNorm=2
F0semitoneFrom27.5Hz_sma3nz_amean=1
F0semitoneFrom27.5Hz_sma3nz_stddevNorm=1
F0semitoneFrom27.5Hz_sma3nz_percentile50.0=1
F0semitoneFrom27.5Hz_sma3nz_percentile80.0=1
loudness_sma3_stddevFallingSlope=1
jitterLocal_sma3nz_stddevNorm=1
HNRdBACF_sma3nz_stddevNorm=1
F1bandwidth_sma3nz_amean=1
F1amplitudeLogRelF0_sma3nz_stddevNorm=1
F2frequency_sma3nz_amean=1
F2frequency_sma3nz_stddevNorm=1
alphaRatioV_sma3nz_amean=1
slopeV0-500_sma3nz_amean=1
mfcc1V_sma3nz_stddevNorm=1
mfcc2V_sma3nz_amean=1
mfcc3V_sma3nz_amean=1
hammarbergIndexUV_sma3nz_amean=1
slopeUV500-1500_sma3nz_amean=1
VoicedSegmentsPerSec=1
MeanUnvoicedSegmentLength=1

parameters:
[boosting: gbdt]
[objective: regression]
[metric: l2]
[tree_learner: serial]
[device_type: cpu]
[data_sample_strategy: bagging]
[data: ]
[valid: ]
[num_iterations: 1000]
[learning_rate: 0.1]
[num_leaves: 31]
[num_threads: 0]
[seed: 0]
[deterministic: 0]
[force_col_wise: 0]
[force_row_wise: 0]
[histogram_pool_size: -1]
[max_depth: -1]
[min_data_in_leaf: 20]
[min_sum_hessian_in_leaf: 0.001]
[bagging_fraction: 1]
[pos_bagging_fraction: 1]
[neg_bagging_fraction: 1]
[bagging_freq: 0]
[bagging_seed: 3]
[feature_fraction: 1]
[feature_fraction_bynode: 1]
[feature_fraction_seed: 2]
[extra_trees: 0]
[extra_seed: 6]
[early_stopping_round: 0]
[early_stopping_min_delta: 0]
[first_metric_only: 0]
[max_delta_step: 0]
[lambda_l1: 0]
[lambda_l2: 0]
[linear_lambda: 0]
[min_gain_to_split: 0]
[drop_rate: 0.1]
[max_drop: 50]
[skip_drop: 0.5]
[xgboost_dart_mode: 0]
[uniform_drop: 0]
[drop_seed: 4]
[top_rate: 0.2]
[other_rate: 0.1]
[min_data_per_group: 100]
[max_cat_threshold: 32]
[cat_l2: 10]
[cat_smooth: 10]
[max_cat_to_onehot: 4]
[top_k: 20]
[monotone_constraints: ]
[monotone_constraints_method: basic]
[monotone_penalty: 0]
[feature_contri: ]
[forcedsplits_filename: ]
[refit_decay_rate: 0.9]
[cegb_tradeoff: 1]
[cegb_penalty_split: 0]
[cegb_penalty_feature_lazy: ]
[cegb_penalty_feature_coupled: ]
[path_smooth: 0]
[interaction_constraints: ]
[verbosity: -1]
[saved_feature_importance_type: 0]
[use_quantized_grad: 0]
[num_grad_quant_bins: 4]
[quant_train_renew_leaf: 0]
[stochastic_rounding: 1]
[linear_tree: 0]
[max_bin: 255]
[max_bin_by_feature: ]
[min_data_in_bin: 3]
[bin_construct_sample_cnt: 200000]
[data_random_seed: 1]
[is_enable_sparse: 1]
[enable_bundle: 1]
[use_missing: 1]
[zero_as_missing: 0]
[feature_pre_filter: 1]
[pre_partition: 0]
[two_round: 0]
[header: 0]
[label_column: ]
[weight_column: ]
[group_column: ]
[ignore_column: ]
[categorical_feature: ]
[forcedbins_filename: ]
[precise_float_parser: 0]
[parser_config_file: ]
[objective_seed: 5]
[num_class: 1]
[is_unbalance: 0]
[scale_pos_weight: 1]
[sigmoid: 1]
[boost_from_average: 1]
[reg_sqrt: 0]
[alpha: 0.9]
[fair_c: 1]
[poisson_max_delta_step: 0.7]
[tweedie_variance_power: 1.5]
[lambdarank_truncation_level: 30]
[lambdarank_norm: 1]
[label_gain: ]
[lambdarank_position_bias_regularization: 0]
[eval_at: ]
[multi_error_top_k: 1]
[auc_mu_weights: ]
[num_machines: 1]
[local_listen_port: 12400]
[time_out: 120]
[machine_list_filename: ]
[machines: ]
[gpu_platform_id: -1]
[gpu_device_id: -1]
[gpu_use_dp: 0]
[num_gpu: 1]

end of parameters

pandas_categorical:[]
